{"learner":{"attributes":{"best_iteration":"499","best_score":"0.11521928713674323","scikit_learn":"{\"_estimator_type\": \"regressor\"}"},"feature_names":[],"feature_types":[],"gradient_booster":{"model":{"gbtree_model_param":{"num_parallel_tree":"1","num_trees":"500"},"iteration_indptr":[0,1,2,3,4,5,6,7,8,9,10,11,12,13,14,15,16,17,18,19,20,21,22,23,24,25,26,27,28,29,30,31,32,33,34,35,36,37,38,39,40,41,42,43,44,45,46,47,48,49,50,51,52,53,54,55,56,57,58,59,60,61,62,63,64,65,66,67,68,69,70,71,72,73,74,75,76,77,78,79,80,81,82,83,84,85,86,87,88,89,90,91,92,93,94,95,96,97,98,99,100,101,102,103,104,105,106,107,108,109,110,111,112,113,114,115,116,117,118,119,120,121,122,123,124,125,126,127,128,129,130,131,132,133,134,135,136,137,138,139,140,141,142,143,144,145,146,147,148,149,150,151,152,153,154,155,156,157,158,159,160,161,162,163,164,165,166,167,168,169,170,171,172,173,174,175,176,177,178,179,180,181,182,183,184,185,186,187,188,189,190,191,192,193,194,195,196,197,198,199,200,201,202,203,204,205,206,207,208,209,210,211,212,213,214,215,216,217,218,219,220,221,222,223,224,225,226,227,228,229,230,231,232,233,234,235,236,237,238,239,240,241,242,243,244,245,246,247,248,249,250,251,252,253,254,255,256,257,258,259,260,261,262,263,264,265,266,267,268,269,270,271,272,273,274,275,276,277,278,279,280,281,282,283,284,285,286,287,288,289,290,291,292,293,294,295,296,297,298,299,300,301,302,303,304,305,306,307,308,309,310,311,312,313,314,315,316,317,318,319,320,321,322,323,324,325,326,327,328,329,330,331,332,333,334,335,336,337,338,339,340,341,342,343,344,345,346,347,348,349,350,351,352,353,354,355,356,357,358,359,360,361,362,363,364,365,366,367,368,369,370,371,372,373,374,375,376,377,378,379,380,381,382,383,384,385,386,387,388,389,390,391,392,393,394,395,396,397,398,399,400,401,402,403,404,405,406,407,408,409,410,411,412,413,414,415,416,417,418,419,420,421,422,423,424,425,426,427,428,429,430,431,432,433,434,435,436,437,438,439,440,441,442,443,444,445,446,447,448,449,450,451,452,453,454,455,456,457,458,459,460,461,462,463,464,465,466,467,468,469,470,471,472,473,474,475,476,477,478,479,480,481,482,483,484,485,486,487,488,489,490,491,492,493,494,495,496,497,498,499,500],"tree_info":[0,0,0,0,0,0,0,0,0,0,0,0,0,0,0,0,0,0,0,0,0,0,0,0,0,0,0,0,0,0,0,0,0,0,0,0,0,0,0,0,0,0,0,0,0,0,0,0,0,0,0,0,0,0,0,0,0,0,0,0,0,0,0,0,0,0,0,0,0,0,0,0,0,0,0,0,0,0,0,0,0,0,0,0,0,0,0,0,0,0,0,0,0,0,0,0,0,0,0,0,0,0,0,0,0,0,0,0,0,0,0,0,0,0,0,0,0,0,0,0,0,0,0,0,0,0,0,0,0,0,0,0,0,0,0,0,0,0,0,0,0,0,0,0,0,0,0,0,0,0,0,0,0,0,0,0,0,0,0,0,0,0,0,0,0,0,0,0,0,0,0,0,0,0,0,0,0,0,0,0,0,0,0,0,0,0,0,0,0,0,0,0,0,0,0,0,0,0,0,0,0,0,0,0,0,0,0,0,0,0,0,0,0,0,0,0,0,0,0,0,0,0,0,0,0,0,0,0,0,0,0,0,0,0,0,0,0,0,0,0,0,0,0,0,0,0,0,0,0,0,0,0,0,0,0,0,0,0,0,0,0,0,0,0,0,0,0,0,0,0,0,0,0,0,0,0,0,0,0,0,0,0,0,0,0,0,0,0,0,0,0,0,0,0,0,0,0,0,0,0,0,0,0,0,0,0,0,0,0,0,0,0,0,0,0,0,0,0,0,0,0,0,0,0,0,0,0,0,0,0,0,0,0,0,0,0,0,0,0,0,0,0,0,0,0,0,0,0,0,0,0,0,0,0,0,0,0,0,0,0,0,0,0,0,0,0,0,0,0,0,0,0,0,0,0,0,0,0,0,0,0,0,0,0,0,0,0,0,0,0,0,0,0,0,0,0,0,0,0,0,0,0,0,0,0,0,0,0,0,0,0,0,0,0,0,0,0,0,0,0,0,0,0,0,0,0,0,0,0,0,0,0,0,0,0,0,0,0,0,0,0,0,0,0,0,0,0,0,0,0,0,0,0,0,0,0,0,0,0,0,0,0,0,0,0,0,0,0,0,0,0,0,0,0,0,0,0,0,0,0,0,0,0,0,0,0,0,0,0,0,0,0,0,0,0,0,0,0,0,0],"trees":[{"base_weights":[-1.5579391E-4,-1.7220972E-1,1.7726965E-1,-2.5793973E-1,-9.774976E-2,9.100459E-2,2.4819745E-1,-2.855626E-1,-2.0313549E-1,-1.3567322E-1,-3.9791584E-2,5.736488E-2,1.3365968E-1,2.5496465E-1,3.216171E-2,-2.9617566E-1,-2.3582938E-1,-2.2482118E-1,-1.4411142E-1,-1.3914853E-1,1.5458899E-2,-5.6616154E-2,-1.6015016E-2,2.6905676E-2,7.3401235E-2,1.1460937E-1,1.5347123E-1,2.0898776E-1,2.9402E-1,2.5770283E-1,-1.15450226E-1,-3.1687796E-2,-2.9787317E-1,-2.4867831E-1,-1.5493473E-1,-1.22562E-2,-2.1218492E-1,-1.5126586E-1,-1.9141208E-2,-1.599695E-1,-9.541122E-2,-5.441257E-2,-8.894426E-3,-3.6903165E-2,-4.8265504E-3,2.953783E-2,-5.5400906E-3,-6.4008944E-2,7.450736E-2,-4.285431E-4,1.1580577E-1,1.561428E-1,3.0469298E-3,1.8796857E-1,2.3077683E-1,1.3130324E-1,2.975539E-1,8.512177E-2,2.915195E-1,-1.5969677E-1,2.7784897E-2,-5.937956E-3,2.2153407E-3,-1.5334954E-2,-1.3526052E-2,-1.4105193E-2,-1.1679654E-2,-8.171508E-3,-4.9201155E-4,-1.0671458E-2,-3.228873E-3,-9.049333E-3,-6.40285E-3,-1.8654153E-3,1.0989144E-3,-9.100425E-3,-7.0738383E-3,-5.7235057E-3,-4.2698416E-3,-3.3052068E-3,-2.022413E-3,-2.1891505E-3,-1.0640998E-3,-4.1618766E-3,-1.7579862E-4,2.1232587E-4,2.1189915E-3,-3.74689E-3,-2.3411661E-4,2.6116394E-3,4.0664854E-3,4.9232184E-3,6.275592E-3,6.769503E-3,8.042588E-3,-3.7564893E-4,1.9241571E-3,9.507834E-3,3.4616769E-3,-1.1558802E-3,1.1566993E-2,4.393307E-3,1.1174154E-2,1.367675E-2,1.5849065E-2,2.8297008E-4,4.994118E-3,5.5031916E-3,1.5177994E-2,-1.0142831E-2,-3.3631173E-3,-1.1306361E-3,8.485806E-3],"categories":[],"categories_nodes":[],"categories_segments":[],"categories_sizes":[],"default_left":[0,0,0,0,0,0,0,0,0,0,0,0,0,0,0,0,0,0,0,0,0,0,0,0,0,0,0,0,0,0,0,0,0,0,0,0,0,0,0,0,0,0,0,0,0,0,0,0,0,0,0,0,0,0,0,0,0,0,0,0,0,0,0,0,0,0,0,0,0,0,0,0,0,0,0,0,0,0,0,0,0,0,0,0,0,0,0,0,0,0,0,0,0,0,0,0,0,0,0,0,0,0,0,0,0,0,0,0,0,0,0,0,0],"id":0,"left_children":[1,3,5,7,9,11,13,15,17,19,21,23,25,27,29,31,33,35,37,39,-1,41,43,45,47,49,51,53,55,57,59,61,63,65,67,-1,69,71,73,75,77,79,-1,81,83,85,-1,87,89,-1,91,93,95,97,99,101,103,105,107,109,111,-1,-1,-1,-1,-1,-1,-1,-1,-1,-1,-1,-1,-1,-1,-1,-1,-1,-1,-1,-1,-1,-1,-1,-1,-1,-1,-1,-1,-1,-1,-1,-1,-1,-1,-1,-1,-1,-1,-1,-1,-1,-1,-1,-1,-1,-1,-1,-1,-1,-1,-1,-1],"loss_changes":[2.5621097E2,2.7174675E1,2.525943E1,2.9394226E0,5.010378E0,2.6698656E0,3.3060455E0,6.2371063E-1,8.2134247E-1,2.1749458E0,3.6072087E-1,5.0846004E-1,2.926464E-1,3.885376E0,2.360231E0,4.7499847E-1,2.0677185E-1,7.26738E-2,1.598289E-1,1.2314205E0,0E0,1.3168728E-1,8.769548E-2,1.3448602E-1,1.0873222E-1,6.333113E-2,1.6027164E-1,4.2056274E-1,6.429138E-1,1.3859665E-1,2.7695656E-1,5.819744E-2,1.7581177E-1,3.595829E-2,4.1534185E-2,0E0,4.260063E-2,9.5466614E-2,9.037213E-3,3.5165215E-1,7.496786E-2,8.238709E-2,0E0,1.3146922E-2,2.4987211E-2,1.15445584E-1,0E0,3.5393462E-3,9.893584E-2,0E0,5.8166504E-2,1.6628265E-2,3.2827482E-3,1.2219429E-1,7.582092E-2,8.847207E-2,4.5457458E-1,6.4721927E-3,1.6839266E-2,1.180073E-1,8.2520686E-2,0E0,0E0,0E0,0E0,0E0,0E0,0E0,0E0,0E0,0E0,0E0,0E0,0E0,0E0,0E0,0E0,0E0,0E0,0E0,0E0,0E0,0E0,0E0,0E0,0E0,0E0,0E0,0E0,0E0,0E0,0E0,0E0,0E0,0E0,0E0,0E0,0E0,0E0,0E0,0E0,0E0,0E0,0E0,0E0,0E0,0E0,0E0,0E0,0E0,0E0,0E0,0E0],"parents":[2147483647,0,0,1,1,2,2,3,3,4,4,5,5,6,6,7,7,8,8,9,9,10,10,11,11,12,12,13,13,14,14,15,15,16,16,17,17,18,18,19,19,21,21,22,22,23,23,24,24,25,25,26,26,27,27,28,28,29,29,30,30,31,31,32,32,33,33,34,34,36,36,37,37,38,38,39,39,40,40,41,41,43,43,44,44,45,45,47,47,48,48,50,50,51,51,52,52,53,53,54,54,55,55,56,56,57,57,58,58,59,59,60,60],"right_children":[2,4,6,8,10,12,14,16,18,20,22,24,26,28,30,32,34,36,38,40,-1,42,44,46,48,50,52,54,56,58,60,62,64,66,68,-1,70,72,74,76,78,80,-1,82,84,86,-1,88,90,-1,92,94,96,98,100,102,104,106,108,110,112,-1,-1,-1,-1,-1,-1,-1,-1,-1,-1,-1,-1,-1,-1,-1,-1,-1,-1,-1,-1,-1,-1,-1,-1,-1,-1,-1,-1,-1,-1,-1,-1,-1,-1,-1,-1,-1,-1,-1,-1,-1,-1,-1,-1,-1,-1,-1,-1,-1,-1,-1,-1],"split_conditions":[-8.043116E-2,-2.3138417E-1,-1.06801735E-2,-1.4867266E-1,-1.2094311E-1,-4.1096617E-2,1.0845159E-1,-7.433669E-1,-4.903295E-1,-4.470274E-2,-9.804349E-2,-6.422336E-2,-2.6881916E-2,-1.3446896E-3,-2.1262083E0,3.575094E-1,-5.6106422E-2,-9.191308E-2,-1.573855E-1,-2.6392758E-1,1.5458899E-2,-5.38532E-2,-8.500105E-2,-4.9051158E-2,-4.9034864E-2,-4.7824416E-2,-4.4091035E-2,7.6413024E-3,-3.902001E-2,6.33549E0,4.2108397E0,-2.4310583E-1,-2.4139355E-1,-5.741243E-2,-5.476856E-2,-1.22562E-2,-1.5910652E-1,-5.476856E-2,-4.967194E-2,-1.1742747E-1,-1.9733877E-1,-9.063623E-2,-8.894426E-3,-2.1657884E-1,-6.101893E-1,-7.92966E-2,-5.5400906E-3,-5.056385E-2,-7.7373475E-2,-4.285431E-4,-6.988252E-2,-6.803268E-2,-4.635914E-2,-3.933244E-2,-4.967194E-2,2.307227E0,1.2729596E-2,-2.7855225E0,2.307227E0,2.200767E0,4.317382E0,-5.937956E-3,2.2153407E-3,-1.5334954E-2,-1.3526052E-2,-1.4105193E-2,-1.1679654E-2,-8.171508E-3,-4.9201155E-4,-1.0671458E-2,-3.228873E-3,-9.049333E-3,-6.40285E-3,-1.8654153E-3,1.0989144E-3,-9.100425E-3,-7.0738383E-3,-5.7235057E-3,-4.2698416E-3,-3.3052068E-3,-2.022413E-3,-2.1891505E-3,-1.0640998E-3,-4.1618766E-3,-1.7579862E-4,2.1232587E-4,2.1189915E-3,-3.74689E-3,-2.3411661E-4,2.6116394E-3,4.0664854E-3,4.9232184E-3,6.275592E-3,6.769503E-3,8.042588E-3,-3.7564893E-4,1.9241571E-3,9.507834E-3,3.4616769E-3,-1.1558802E-3,1.1566993E-2,4.393307E-3,1.1174154E-2,1.367675E-2,1.5849065E-2,2.8297008E-4,4.994118E-3,5.5031916E-3,1.5177994E-2,-1.0142831E-2,-3.3631173E-3,-1.1306361E-3,8.485806E-3],"split_indices":[4,9,4,5,4,4,1,2,2,1,4,4,4,5,3,3,1,6,2,2,0,6,6,6,1,1,6,4,1,4,2,9,9,1,1,0,4,1,1,5,2,5,0,9,2,6,0,1,6,0,6,6,1,6,1,9,5,3,9,9,2,0,0,0,0,0,0,0,0,0,0,0,0,0,0,0,0,0,0,0,0,0,0,0,0,0,0,0,0,0,0,0,0,0,0,0,0,0,0,0,0,0,0,0,0,0,0,0,0,0,0,0,0],"split_type":[0,0,0,0,0,0,0,0,0,0,0,0,0,0,0,0,0,0,0,0,0,0,0,0,0,0,0,0,0,0,0,0,0,0,0,0,0,0,0,0,0,0,0,0,0,0,0,0,0,0,0,0,0,0,0,0,0,0,0,0,0,0,0,0,0,0,0,0,0,0,0,0,0,0,0,0,0,0,0,0,0,0,0,0,0,0,0,0,0,0,0,0,0,0,0,0,0,0,0,0,0,0,0,0,0,0,0,0,0,0,0,0,0],"sum_hessian":[8.391E3,4.26E3,4.131E3,1.979E3,2.281E3,1.865E3,2.266E3,1.313E3,6.66E2,1.378E3,9.03E2,1.044E3,8.21E2,2.197E3,6.9E1,1.078E3,2.35E2,4.85E2,1.81E2,1.368E3,1E1,5.28E2,3.75E2,3.61E2,6.83E2,4.22E2,3.99E2,1.012E3,1.185E3,2.7E1,4.2E1,7E0,1.071E3,2.01E2,3.4E1,1.79E2,3.06E2,1.71E2,1E1,9.25E2,4.43E2,5.2E2,8E0,1.3E2,2.45E2,3.55E2,6E0,5E0,6.78E2,4E0,4.18E2,3.92E2,7E0,5.2E2,4.92E2,2.6E1,1.159E3,5E0,2.2E1,3.2E1,1E1,3E0,4E0,8.02E2,2.69E2,5.7E1,1.44E2,3.2E1,2E0,3.03E2,3E0,7.2E1,9.9E1,7E0,3E0,4.18E2,5.07E2,1.49E2,2.94E2,2.81E2,2.39E2,8.9E1,4.1E1,3E0,2.42E2,1.2E2,2.35E2,4E0,1E0,1.61E2,5.17E2,1.54E2,2.64E2,7.8E1,3.14E2,6E0,1E0,5.1E2,1E1,1E0,4.91E2,1.9E1,7E0,5.25E2,6.34E2,1E0,4E0,2E0,2E1,2.1E1,1.1E1,8E0,2E0],"tree_param":{"num_deleted":"0","num_feature":"10","num_nodes":"113","size_leaf_vector":"1"}},{"base_weights":[-1.9942818E-3,-1.6148041E-1,1.6698325E-1,-2.4176991E-1,-8.8057384E-2,8.850368E-2,2.3572877E-1,-2.7149764E-1,-1.9145338E-1,-1.2390404E-1,-3.819274E-2,5.9849296E-2,1.369798E-1,2.4277821E-1,-6.5747253E-3,-2.8064892E-1,-2.1447937E-1,-2.1014306E-1,-1.3459423E-1,-1.2902349E-1,1.5165714E-2,-3.5593413E-2,-1.0518115E-2,6.3023634E-2,-1.3233367E-1,-1.647176E-2,1.3984905E-1,2.0390105E-1,2.814641E-1,2.2953148E-1,-1.3009287E-1,1.2958773E-2,-2.8223765E-1,-2.2883117E-1,-1.327007E-1,-1.1615677E-2,-1.959663E-1,-1.4450663E-1,-1.4667448E-2,-1.4825052E-1,-9.0097085E-2,-5.0905306E-2,-1.058578E-2,3.647943E-2,8.092979E-2,-4.357607E-3,-9.460597E-3,-9.495556E-3,-2.6790604E-3,1.217375E-1,1.5203741E-1,-8.959865E-2,2.0732436E-1,2.5238663E-1,2.997583E-1,5.141135E-3,2.6075038E-1,-1.8194064E-1,1.4688288E-2,2.1267277E-3,-2.0326893E-3,-1.4920117E-2,-1.3432731E-2,-1.3038853E-2,-1.0390199E-2,-7.260021E-3,-7.5762346E-4,-1.0647028E-2,-8.965119E-3,-8.157353E-3,-5.811739E-3,-1.8017257E-3,8.97614E-4,7.0494427E-3,-7.4702986E-3,-5.7830797E-3,-4.192432E-3,-3.1682334E-3,-1.9326052E-3,-1.5352614E-3,-7.871783E-5,5.8017415E-4,2.4117648E-3,3.3031262E-3,4.4781337E-3,2.6987793E-4,-5.593223E-4,5.3541423E-3,6.3839927E-3,3.114146E-3,7.649003E-3,-5.938163E-3,2.3602247E-3,9.456058E-3,1.1809432E-2,1.15408795E-2,1.3050335E-2,1.1090039E-2,1.5056387E-2,5.5602593E-3,1.3663803E-2,-6.0791667E-3,-1.1910811E-2,-2.697551E-4,3.8368416E-3],"categories":[],"categories_nodes":[],"categories_segments":[],"categories_sizes":[],"default_left":[0,0,0,0,0,0,0,0,0,0,0,0,0,0,0,0,0,0,0,0,0,0,0,0,0,0,0,0,0,0,0,0,0,0,0,0,0,0,0,0,0,0,0,0,0,0,0,0,0,0,0,0,0,0,0,0,0,0,0,0,0,0,0,0,0,0,0,0,0,0,0,0,0,0,0,0,0,0,0,0,0,0,0,0,0,0,0,0,0,0,0,0,0,0,0,0,0,0,0,0,0,0,0,0,0],"id":1,"left_children":[1,3,5,7,9,11,13,15,17,19,21,23,25,27,29,31,33,35,37,39,-1,41,-1,43,45,47,49,51,53,55,57,59,61,63,65,-1,67,69,71,73,75,77,79,81,83,-1,-1,85,-1,87,89,91,93,95,97,-1,99,101,103,-1,-1,-1,-1,-1,-1,-1,-1,-1,-1,-1,-1,-1,-1,-1,-1,-1,-1,-1,-1,-1,-1,-1,-1,-1,-1,-1,-1,-1,-1,-1,-1,-1,-1,-1,-1,-1,-1,-1,-1,-1,-1,-1,-1,-1,-1],"loss_changes":[2.2850543E2,2.5693123E1,2.2190842E1,3.0637665E0,4.0707245E0,2.6643429E0,3.749176E0,6.21788E-1,7.974186E-1,2.9392567E0,4.1989887E-1,7.4711466E-1,3.1667042E-1,3.1491165E0,1.8671546E0,5.2749634E-1,1.8676376E-1,1.3771248E-1,2.296896E-1,9.67844E-1,0E0,3.601662E-1,0E0,5.6361103E-1,3.4906715E-2,3.1155802E-3,1.3623714E-1,1.0906334E0,4.914093E-1,6.021452E-2,3.1794882E-1,1.2828623E-2,1.6508484E-1,5.05991E-2,4.1879416E-2,0E0,6.421471E-2,7.589626E-2,1.1798708E-2,3.138256E-1,5.9948206E-2,8.670843E-2,6.5040104E-2,1.4039558E-1,8.533859E-2,0E0,0E0,3.8775336E-4,0E0,1.1320591E-2,2.558422E-2,5.7473697E-2,5.09655E-1,1.747322E-2,2.494812E-3,0E0,1.4539957E-3,7.633281E-2,1.53677445E-2,0E0,0E0,0E0,0E0,0E0,0E0,0E0,0E0,0E0,0E0,0E0,0E0,0E0,0E0,0E0,0E0,0E0,0E0,0E0,0E0,0E0,0E0,0E0,0E0,0E0,0E0,0E0,0E0,0E0,0E0,0E0,0E0,0E0,0E0,0E0,0E0,0E0,0E0,0E0,0E0,0E0,0E0,0E0,0E0,0E0,0E0],"parents":[2147483647,0,0,1,1,2,2,3,3,4,4,5,5,6,6,7,7,8,8,9,9,10,10,11,11,12,12,13,13,14,14,15,15,16,16,17,17,18,18,19,19,21,21,23,23,24,24,25,25,26,26,27,27,28,28,29,29,30,30,31,31,32,32,33,33,34,34,36,36,37,37,38,38,39,39,40,40,41,41,42,42,43,43,44,44,47,47,49,49,50,50,51,51,52,52,53,53,54,54,56,56,57,57,58,58],"right_children":[2,4,6,8,10,12,14,16,18,20,22,24,26,28,30,32,34,36,38,40,-1,42,-1,44,46,48,50,52,54,56,58,60,62,64,66,-1,68,70,72,74,76,78,80,82,84,-1,-1,86,-1,88,90,92,94,96,98,-1,100,102,104,-1,-1,-1,-1,-1,-1,-1,-1,-1,-1,-1,-1,-1,-1,-1,-1,-1,-1,-1,-1,-1,-1,-1,-1,-1,-1,-1,-1,-1,-1,-1,-1,-1,-1,-1,-1,-1,-1,-1,-1,-1,-1,-1,-1,-1,-1],"split_conditions":[-7.055411E-2,-2.3068576E-1,-2.367517E-2,-1.4867266E-1,-9.956519E-2,-4.2912755E-2,1.0845159E-1,-7.0341367E-1,-5.0364727E-1,-4.52124E-2,-4.9582973E-2,-4.687731E-2,-4.635914E-2,-3.341373E-2,-2.1262083E0,3.575094E-1,-5.6106422E-2,-9.099025E-2,-1.21885754E-1,-2.5060982E-1,1.5165714E-2,-8.17085E-2,-1.0518115E-2,-5.715508E-2,3.39446E-1,-3.0853743E-2,-2.0368439E-1,-2.6392758E-1,-1.896527E-1,3.501622E0,3.2071147E0,-2.2051947E-1,-2.469242E-1,-5.7195824E-2,-5.5189032E-2,-1.1615677E-2,-2.3316637E-1,-5.4386314E-2,-4.9289696E-2,-6.1579496E-2,5.0431564E-2,-9.063623E-2,-8.500105E-2,-6.608405E-2,-2.0861425E-1,-4.357607E-3,-9.460597E-3,-4.824388E-1,-2.6790604E-3,-6.913609E-2,-3.9302103E-2,-4.9034864E-2,-8.045756E-3,-1.9287203E-1,5.350796E-3,5.141135E-3,4.317382E0,-1.7920355E0,2.287974E0,2.1267277E-3,-2.0326893E-3,-1.4920117E-2,-1.3432731E-2,-1.3038853E-2,-1.0390199E-2,-7.260021E-3,-7.5762346E-4,-1.0647028E-2,-8.965119E-3,-8.157353E-3,-5.811739E-3,-1.8017257E-3,8.97614E-4,7.0494427E-3,-7.4702986E-3,-5.7830797E-3,-4.192432E-3,-3.1682334E-3,-1.9326052E-3,-1.5352614E-3,-7.871783E-5,5.8017415E-4,2.4117648E-3,3.3031262E-3,4.4781337E-3,2.6987793E-4,-5.593223E-4,5.3541423E-3,6.3839927E-3,3.114146E-3,7.649003E-3,-5.938163E-3,2.3602247E-3,9.456058E-3,1.1809432E-2,1.15408795E-2,1.3050335E-2,1.1090039E-2,1.5056387E-2,5.5602593E-3,1.3663803E-2,-6.0791667E-3,-1.1910811E-2,-2.697551E-4,3.8368416E-3],"split_indices":[5,9,5,5,5,5,1,2,2,1,6,6,1,1,3,3,1,6,5,2,0,5,0,5,3,3,9,2,9,7,7,3,9,1,1,0,9,1,1,1,3,5,6,5,9,0,0,3,0,6,5,1,5,9,5,0,2,3,9,0,0,0,0,0,0,0,0,0,0,0,0,0,0,0,0,0,0,0,0,0,0,0,0,0,0,0,0,0,0,0,0,0,0,0,0,0,0,0,0,0,0,0,0,0,0],"split_type":[0,0,0,0,0,0,0,0,0,0,0,0,0,0,0,0,0,0,0,0,0,0,0,0,0,0,0,0,0,0,0,0,0,0,0,0,0,0,0,0,0,0,0,0,0,0,0,0,0,0,0,0,0,0,0,0,0,0,0,0,0,0,0,0,0,0,0,0,0,0,0,0,0,0,0,0,0,0,0,0,0,0,0,0,0,0,0,0,0,0,0,0,0,0,0,0,0,0,0,0,0,0,0,0,0],"sum_hessian":[8.477E3,4.361E3,4.116E3,2.082E3,2.279E3,1.923E3,2.193E3,1.306E3,7.76E2,1.325E3,9.54E2,1.21E3,7.13E2,2.131E3,6.2E1,1.122E3,1.84E2,5.82E2,1.94E2,1.31E3,1.5E1,9.41E2,1.3E1,1.191E3,1.9E1,1.3E1,7E2,1.066E3,1.065E3,2.1E1,4.1E1,6E0,1.116E3,1.55E2,2.9E1,2.21E2,3.61E2,1.79E2,1.5E1,8.75E2,4.35E2,5.83E2,3.58E2,4.81E2,7.1E2,1.2E1,7E0,1.2E1,1E0,2.86E2,4.14E2,1.2E1,1.054E3,4.17E2,6.48E2,5E0,1.6E1,3E1,1.1E1,4E0,2E0,5E2,6.16E2,5.7E1,9.8E1,2.6E1,3E0,1.73E2,1.88E2,1.05E2,7.4E1,9E0,6E0,3E0,8.72E2,8.2E1,3.53E2,2.87E2,2.96E2,1.1E2,2.48E2,1.55E2,3.26E2,2.64E2,4.46E2,1E0,1.1E1,8.8E1,1.98E2,5E0,4.09E2,1E1,2E0,6.51E2,4.03E2,1.27E2,2.9E2,1.4E1,6.34E2,2E0,1.4E1,1.6E1,1.4E1,9E0,2E0],"tree_param":{"num_deleted":"0","num_feature":"10","num_nodes":"105","size_leaf_vector":"1"}},{"base_weights":[-2.1675038E-4,-1.602631E-1,1.5585008E-1,-2.2985925E-1,-8.4507324E-2,7.582147E-2,2.2108814E-1,-2.594253E-1,-1.8360038E-1,-1.171068E-1,-3.8537625E-2,4.310928E-2,1.1208884E-1,1.7798021E-1,2.4923511E-1,1.7056912E-3,-2.6081985E-1,-2.0043288E-1,-1.2769726E-1,-1.3685946E-1,-8.483989E-2,-5.8969155E-2,-2.4811659E-2,1.3875561E-2,6.0087077E-2,9.148813E-2,1.3042946E-1,1.6057767E-1,9.764943E-3,2.6293218E-1,4.896055E-2,-1.3780744E-1,7.117798E-2,-2.7016205E-1,-2.1903096E-1,-2.1261343E-1,-1.7969857E-1,-1.325505E-1,4.7423616E-3,-1.4694756E-1,-1.0829932E-1,-1.03731416E-1,-7.840266E-2,-8.018284E-2,-4.0165275E-2,-4.086407E-2,-1.8275585E-2,-1.8981911E-2,1.8114943E-2,1.567852E-2,6.232923E-2,7.8864336E-2,9.599529E-2,1.20223954E-1,1.3859464E-1,7.3763854E-3,1.6458172E-1,1.1743576E-2,2.838803E-1,2.2381377E-1,-1.1598436E-1,-1.9008577E-3,-8.434701E-3,1.5768238E-3,5.0153662E-3,-1.3853368E-2,-1.2065529E-2,-1.1379781E-2,-9.533798E-3,-1.1688183E-2,-1.0234796E-2,-1.0360763E-2,-8.507895E-3,-7.906149E-3,-5.6232484E-3,-1.0292481E-3,8.307815E-4,-8.061564E-3,-6.814532E-3,-6.1580543E-3,-4.4473535E-3,-6.3555697E-3,-4.4277776E-3,-4.1441116E-3,-2.70046E-3,-5.065808E-3,-3.3250966E-3,-2.3778258E-3,-9.5782906E-4,-2.308403E-3,-9.2109543E-4,-2.2402194E-3,-6.1992335E-4,-1.1904276E-3,-2.264522E-4,-3.1813708E-4,1.3945744E-3,-7.1574276E-4,1.157532E-3,2.1221668E-3,3.4155317E-3,4.449755E-3,3.5980735E-3,5.2608056E-3,4.054624E-3,2.3872429E-3,6.0502975E-3,6.0607563E-3,7.134305E-3,8.560983E-3,7.3104138E-3,1.4248793E-2,-4.286676E-3,5.0362134E-3,1.3276068E-2,-8.185073E-3,1.25386E-3],"categories":[],"categories_nodes":[],"categories_segments":[],"categories_sizes":[],"default_left":[0,0,0,0,0,0,0,0,0,0,0,0,0,0,0,0,0,0,0,0,0,0,0,0,0,0,0,0,0,0,0,0,0,0,0,0,0,0,0,0,0,0,0,0,0,0,0,0,0,0,0,0,0,0,0,0,0,0,0,0,0,0,0,0,0,0,0,0,0,0,0,0,0,0,0,0,0,0,0,0,0,0,0,0,0,0,0,0,0,0,0,0,0,0,0,0,0,0,0,0,0,0,0,0,0,0,0,0,0,0,0,0,0,0,0,0,0],"id":2,"left_children":[1,3,5,7,9,11,13,15,17,19,21,23,25,27,29,31,33,35,37,39,41,43,45,47,49,51,53,55,-1,57,59,61,63,65,67,69,71,73,75,77,79,81,83,85,87,89,91,93,95,97,99,101,103,105,107,-1,109,-1,111,113,115,-1,-1,-1,-1,-1,-1,-1,-1,-1,-1,-1,-1,-1,-1,-1,-1,-1,-1,-1,-1,-1,-1,-1,-1,-1,-1,-1,-1,-1,-1,-1,-1,-1,-1,-1,-1,-1,-1,-1,-1,-1,-1,-1,-1,-1,-1,-1,-1,-1,-1,-1,-1,-1,-1,-1,-1],"loss_changes":[2.1031415E2,2.189756E1,2.223999E1,2.914795E0,2.9806757E0,2.268281E0,2.8046036E0,4.807663E-1,7.7236366E-1,7.3091125E-1,2.3074317E-1,4.999572E-1,3.311367E-1,2.4922943E-1,3.8769455E0,8.734723E-2,4.5303345E-1,1.2595558E-1,1.2853813E-1,1.9181728E-1,4.5983076E-2,1.2921417E-1,5.1398307E-2,5.2161716E-2,6.2549114E-2,1.6952276E-2,2.3169518E-2,2.7942657E-4,0E0,7.1336365E-1,2.6793444E0,2.8332733E-3,3.7650485E-3,1.4591217E-1,1.6101837E-2,1.9802094E-2,2.9584408E-2,8.083463E-2,2.747777E-3,5.870247E-2,4.4265985E-2,2.7772903E-2,3.22392E-2,3.807628E-2,2.6728868E-2,1.6171232E-2,5.479359E-2,2.8917994E-3,7.9148844E-2,7.5030494E-3,6.930065E-2,1.9176006E-3,3.4478903E-2,6.6916943E-3,1.1205673E-3,0E0,1.7774582E-2,0E0,3.3015823E-1,2.042749E-1,3.2719553E-1,0E0,0E0,0E0,0E0,0E0,0E0,0E0,0E0,0E0,0E0,0E0,0E0,0E0,0E0,0E0,0E0,0E0,0E0,0E0,0E0,0E0,0E0,0E0,0E0,0E0,0E0,0E0,0E0,0E0,0E0,0E0,0E0,0E0,0E0,0E0,0E0,0E0,0E0,0E0,0E0,0E0,0E0,0E0,0E0,0E0,0E0,0E0,0E0,0E0,0E0,0E0,0E0,0E0,0E0,0E0,0E0],"parents":[2147483647,0,0,1,1,2,2,3,3,4,4,5,5,6,6,7,7,8,8,9,9,10,10,11,11,12,12,13,13,14,14,15,15,16,16,17,17,18,18,19,19,20,20,21,21,22,22,23,23,24,24,25,25,26,26,27,27,29,29,30,30,31,31,32,32,33,33,34,34,35,35,36,36,37,37,38,38,39,39,40,40,41,41,42,42,43,43,44,44,45,45,46,46,47,47,48,48,49,49,50,50,51,51,52,52,53,53,54,54,56,56,58,58,59,59,60,60],"right_children":[2,4,6,8,10,12,14,16,18,20,22,24,26,28,30,32,34,36,38,40,42,44,46,48,50,52,54,56,-1,58,60,62,64,66,68,70,72,74,76,78,80,82,84,86,88,90,92,94,96,98,100,102,104,106,108,-1,110,-1,112,114,116,-1,-1,-1,-1,-1,-1,-1,-1,-1,-1,-1,-1,-1,-1,-1,-1,-1,-1,-1,-1,-1,-1,-1,-1,-1,-1,-1,-1,-1,-1,-1,-1,-1,-1,-1,-1,-1,-1,-1,-1,-1,-1,-1,-1,-1,-1,-1,-1,-1,-1,-1,-1,-1,-1,-1,-1],"split_conditions":[-1.0249426E-1,-1.1152139E-1,-9.408695E-2,-1.4867266E-1,-1.0698819E-1,-9.782785E-2,-9.00115E-2,3.575094E-1,-4.903295E-1,-2.5060982E-1,-1.0510638E-1,-1.0048926E-1,-9.62906E-2,-9.222401E-2,2.3258464E0,-2.4310583E-1,-7.433669E-1,-1.1284228E-1,-1.3074999E-1,-1.0877953E-1,-2.1065654E-1,-7.7478945E-2,-8.670642E-2,-4.3705845E-1,-3.4383413E-1,-7.18093E-2,-2.0368439E-1,-6.318248E-2,9.764943E-3,-8.716915E-2,-2.1262083E0,-1.2779665E-1,-2.3558122E-1,-1.1782322E-1,-5.5691826E-1,-9.7451605E-2,-9.408641E-2,-1.1431485E-1,5.5698648E-2,-8.864629E-2,3.123509E-1,5.9463266E-2,2.671924E-1,3.2368165E-2,8.655837E-2,-2.1657884E-1,-5.0364727E-1,-2.6085865E-1,-8.2286485E-2,-4.6369398E-1,-7.705208E-2,-5.095339E-1,-6.160326E-2,-2.7724534E-1,-6.615981E-2,7.3763854E-3,-5.201697E-2,1.1743576E-2,3.536668E0,3.501622E0,4.2108397E0,-1.9008577E-3,-8.434701E-3,1.5768238E-3,5.0153662E-3,-1.3853368E-2,-1.2065529E-2,-1.1379781E-2,-9.533798E-3,-1.1688183E-2,-1.0234796E-2,-1.0360763E-2,-8.507895E-3,-7.906149E-3,-5.6232484E-3,-1.0292481E-3,8.307815E-4,-8.061564E-3,-6.814532E-3,-6.1580543E-3,-4.4473535E-3,-6.3555697E-3,-4.4277776E-3,-4.1441116E-3,-2.70046E-3,-5.065808E-3,-3.3250966E-3,-2.3778258E-3,-9.5782906E-4,-2.308403E-3,-9.2109543E-4,-2.2402194E-3,-6.1992335E-4,-1.1904276E-3,-2.264522E-4,-3.1813708E-4,1.3945744E-3,-7.1574276E-4,1.157532E-3,2.1221668E-3,3.4155317E-3,4.449755E-3,3.5980735E-3,5.2608056E-3,4.054624E-3,2.3872429E-3,6.0502975E-3,6.0607563E-3,7.134305E-3,8.560983E-3,7.3104138E-3,1.4248793E-2,-4.286676E-3,5.0362134E-3,1.3276068E-2,-8.185073E-3,1.25386E-3],"split_indices":[0,0,0,5,0,0,0,3,2,2,0,0,0,0,0,9,2,0,2,0,2,2,6,2,2,6,9,6,0,0,3,0,9,0,2,6,6,0,2,6,3,3,3,3,3,9,2,7,6,2,6,3,6,2,6,0,6,0,3,7,2,0,0,0,0,0,0,0,0,0,0,0,0,0,0,0,0,0,0,0,0,0,0,0,0,0,0,0,0,0,0,0,0,0,0,0,0,0,0,0,0,0,0,0,0,0,0,0,0,0,0,0,0,0,0,0,0],"split_type":[0,0,0,0,0,0,0,0,0,0,0,0,0,0,0,0,0,0,0,0,0,0,0,0,0,0,0,0,0,0,0,0,0,0,0,0,0,0,0,0,0,0,0,0,0,0,0,0,0,0,0,0,0,0,0,0,0,0,0,0,0,0,0,0,0,0,0,0,0,0,0,0,0,0,0,0,0,0,0,0,0,0,0,0,0,0,0,0,0,0,0,0,0,0,0,0,0,0,0,0,0,0,0,0,0,0,0,0,0,0,0,0,0,0,0,0,0],"sum_hessian":[8.418E3,4.156E3,4.262E3,2.165E3,1.991E3,1.915E3,2.347E3,1.318E3,8.47E2,1.164E3,8.27E2,1.008E3,9.07E2,9.3E2,1.417E3,7E0,1.311E3,6.49E2,1.98E2,7.2E2,4.44E2,3.31E2,4.96E2,3.71E2,6.37E2,4.3E2,4.77E2,4.69E2,4.61E2,1.326E3,9.1E1,2E0,5E0,1.067E3,2.44E2,4.03E2,2.46E2,1.91E2,7E0,5.29E2,1.91E2,1.09E2,3.35E2,1.54E2,1.77E2,1.42E2,3.54E2,4.2E1,3.29E2,3.1E1,6.06E2,1.18E2,3.12E2,2.19E2,2.58E2,1.19E2,3.5E2,5.72E2,7.54E2,4.4E1,4.7E1,1E0,1E0,3E0,2E0,8.54E2,2.13E2,1.82E2,6.2E1,1.02E2,3.01E2,5.8E1,1.88E2,8.1E1,1.1E2,2E0,5E0,2.2E2,3.09E2,1.05E2,8.6E1,4E1,6.9E1,2.81E2,5.4E1,5.8E1,9.6E1,1.3E2,4.7E1,1.14E2,2.8E1,6.3E1,2.91E2,3.1E1,1.1E1,9.4E1,2.35E2,6E0,2.5E1,1.42E2,4.64E2,4.3E1,7.5E1,1.89E2,1.23E2,3E0,2.16E2,5.5E1,2.03E2,2.51E2,9.9E1,7.52E2,2E0,1.2E1,3.2E1,3.5E1,1.2E1],"tree_param":{"num_deleted":"0","num_feature":"10","num_nodes":"117","size_leaf_vector":"1"}},{"base_weights":[7.4495096E-5,-1.5371732E-1,1.4846694E-1,-2.2018608E-1,-8.372263E-2,6.996075E-2,2.1073857E-1,-2.4876058E-1,-1.8144493E-1,-1.1343014E-1,-3.759674E-2,3.9590612E-2,1.0570634E-1,1.6988613E-1,2.376107E-1,-2.58761E-1,-2.0924008E-1,-1.9630542E-1,-1.2689033E-1,-1.3210717E-1,-8.121543E-2,-5.574221E-2,-2.4969343E-2,1.272126E-2,5.6395676E-2,8.7330125E-2,1.2536223E-1,1.5220414E-1,1.8476073E-1,2.5047988E-1,6.400862E-2,-2.6159412E-1,-1.1016321E-2,-1.2540336E-2,-1.9973244E-1,1.0730026E-1,-1.9817491E-1,-7.3542446E-3,-9.9666335E-2,-1.4691979E-1,-1.1524499E-1,-9.279718E-2,-7.213728E-2,-7.641223E-2,-3.9285626E-2,-3.9338544E-2,-1.8754112E-2,-6.3858544E-3,1.8984204E-2,2.922413E-2,5.9448272E-2,7.689382E-2,9.340133E-2,5.4999557E-3,1.3032767E-1,6.9292407E-3,1.561405E-1,8.675059E-3,9.5494995E-3,2.2579242E-1,2.725359E-1,-8.51727E-2,2.4422917E-1,-7.765226E-3,-1.3124722E-2,-7.2372257E-4,-1.0027478E-2,1.5888682E-3,7.35282E-3,-1.0534762E-2,-8.856509E-3,7.030553E-4,-5.2658296E-3,-7.451065E-3,-3.8416479E-3,-5.03551E-3,-6.3607865E-3,-3.974887E-3,-5.9805955E-3,-3.917956E-3,-2.935506E-3,-3.3900707E-3,-5.0522783E-3,-3.0226603E-3,-1.7776856E-3,-2.3326448E-3,-1.1348934E-3,-2.2535957E-3,-6.5470434E-4,-4.573457E-4,5.515535E-4,-6.351505E-4,1.3646114E-3,-6.7470275E-4,1.6473419E-3,2.0340115E-3,3.3065397E-3,3.6230234E-3,4.2660884E-3,5.1894384E-3,3.8662057E-3,5.1611094E-3,6.7138397E-3,8.129666E-3,6.9675255E-3,1.0812688E-2,1.1999885E-2,-6.797835E-4,1.36480825E-2,-7.914028E-3,2.2105444E-3,8.240773E-3,1.283053E-2],"categories":[],"categories_nodes":[],"categories_segments":[],"categories_sizes":[],"default_left":[0,0,0,0,0,0,0,0,0,0,0,0,0,0,0,0,0,0,0,0,0,0,0,0,0,0,0,0,0,0,0,0,0,0,0,0,0,0,0,0,0,0,0,0,0,0,0,0,0,0,0,0,0,0,0,0,0,0,0,0,0,0,0,0,0,0,0,0,0,0,0,0,0,0,0,0,0,0,0,0,0,0,0,0,0,0,0,0,0,0,0,0,0,0,0,0,0,0,0,0,0,0,0,0,0,0,0,0,0,0,0,0,0],"id":3,"left_children":[1,3,5,7,9,11,13,15,17,19,21,23,25,27,29,31,33,35,37,39,41,43,45,47,49,51,53,55,57,59,61,63,-1,-1,65,67,69,-1,71,73,75,77,79,81,83,85,87,89,91,93,95,97,99,-1,101,-1,103,-1,-1,105,107,109,111,-1,-1,-1,-1,-1,-1,-1,-1,-1,-1,-1,-1,-1,-1,-1,-1,-1,-1,-1,-1,-1,-1,-1,-1,-1,-1,-1,-1,-1,-1,-1,-1,-1,-1,-1,-1,-1,-1,-1,-1,-1,-1,-1,-1,-1,-1,-1,-1,-1,-1],"loss_changes":[1.9286488E2,1.9289268E1,2.101159E1,2.310585E0,2.7678242E0,2.0627956E0,2.5921402E0,4.2881775E-1,7.1040344E-1,7.29332E-1,1.8053734E-1,4.6482146E-1,3.0473995E-1,2.2305489E-1,3.2100372E0,4.8095703E-2,4.9495697E-2,4.2481804E-1,9.364653E-2,1.771431E-1,4.1039705E-2,1.0754943E-1,4.1236967E-2,4.7748603E-2,5.08492E-2,2.1647215E-2,1.770401E-2,2.0570755E-3,2.9144287E-3,6.7028046E-1,2.736241E0,4.5261383E-2,0E0,0E0,2.8887749E-2,1.0339431E-2,1.4896584E-1,0E0,5.738604E-2,4.8937798E-2,5.121708E-2,6.0388923E-2,1.7036796E-2,2.348119E-2,1.2306869E-2,1.6103E-2,4.8566423E-2,4.8617274E-3,7.932418E-2,1.0940388E-2,6.867266E-2,2.8157234E-4,3.923583E-2,0E0,1.9536972E-2,0E0,1.3636589E-2,0E0,0E0,3.4820557E-2,8.959961E-2,5.366992E-1,2.9363632E-3,0E0,0E0,0E0,0E0,0E0,0E0,0E0,0E0,0E0,0E0,0E0,0E0,0E0,0E0,0E0,0E0,0E0,0E0,0E0,0E0,0E0,0E0,0E0,0E0,0E0,0E0,0E0,0E0,0E0,0E0,0E0,0E0,0E0,0E0,0E0,0E0,0E0,0E0,0E0,0E0,0E0,0E0,0E0,0E0,0E0,0E0,0E0,0E0,0E0,0E0],"parents":[2147483647,0,0,1,1,2,2,3,3,4,4,5,5,6,6,7,7,8,8,9,9,10,10,11,11,12,12,13,13,14,14,15,15,16,16,17,17,18,18,19,19,20,20,21,21,22,22,23,23,24,24,25,25,26,26,27,27,28,28,29,29,30,30,31,31,34,34,35,35,36,36,38,38,39,39,40,40,41,41,42,42,43,43,44,44,45,45,46,46,47,47,48,48,49,49,50,50,51,51,52,52,54,54,56,56,59,59,60,60,61,61,62,62],"right_children":[2,4,6,8,10,12,14,16,18,20,22,24,26,28,30,32,34,36,38,40,42,44,46,48,50,52,54,56,58,60,62,64,-1,-1,66,68,70,-1,72,74,76,78,80,82,84,86,88,90,92,94,96,98,100,-1,102,-1,104,-1,-1,106,108,110,112,-1,-1,-1,-1,-1,-1,-1,-1,-1,-1,-1,-1,-1,-1,-1,-1,-1,-1,-1,-1,-1,-1,-1,-1,-1,-1,-1,-1,-1,-1,-1,-1,-1,-1,-1,-1,-1,-1,-1,-1,-1,-1,-1,-1,-1,-1,-1,-1,-1,-1],"split_conditions":[-1.0275952E-1,-1.1181244E-1,-9.408695E-2,-2.3813249E-1,-1.0698819E-1,-9.782785E-2,-8.99141E-2,-7.5668466E-1,-5.0364727E-1,-2.5060982E-1,-1.0510638E-1,-1.0048926E-1,-9.606308E-2,-9.235875E-2,2.3258464E0,-7.899405E-2,-1.1831228E-1,-1.2779665E-1,-2.3428263E-1,-1.0966846E-1,-1.573855E-1,-7.7478945E-2,-8.670642E-2,-8.2922995E-2,-2.905631E-1,-6.988252E-2,-6.663667E-2,-6.374832E-2,-1.9746393E-1,-8.677108E-2,4.317382E0,-3.2604234E0,-1.1016321E-2,-1.2540336E-2,-1.2779665E-1,-2.3558122E-1,-1.1337895E-1,-7.3542446E-3,-1.1517645E-1,-3.0388087E-1,-4.4116923E-1,-1.5868266E-1,-9.033281E-2,-6.852736E-2,-9.253912E-2,-2.1726473E-1,-5.302828E-1,-2.1336594E-1,-3.971052E-1,-4.6369398E-1,-7.705208E-2,5.565493E-1,-5.967543E-2,5.4999557E-3,-1.1743222E-1,6.9292407E-3,-5.3116195E-2,8.675059E-3,9.5494995E-3,-8.806617E-2,-2.751874E-1,3.2071147E0,3.501622E0,-7.765226E-3,-1.3124722E-2,-7.2372257E-4,-1.0027478E-2,1.5888682E-3,7.35282E-3,-1.0534762E-2,-8.856509E-3,7.030553E-4,-5.2658296E-3,-7.451065E-3,-3.8416479E-3,-5.03551E-3,-6.3607865E-3,-3.974887E-3,-5.9805955E-3,-3.917956E-3,-2.935506E-3,-3.3900707E-3,-5.0522783E-3,-3.0226603E-3,-1.7776856E-3,-2.3326448E-3,-1.1348934E-3,-2.2535957E-3,-6.5470434E-4,-4.573457E-4,5.515535E-4,-6.351505E-4,1.3646114E-3,-6.7470275E-4,1.6473419E-3,2.0340115E-3,3.3065397E-3,3.6230234E-3,4.2660884E-3,5.1894384E-3,3.8662057E-3,5.1611094E-3,6.7138397E-3,8.129666E-3,6.9675255E-3,1.0812688E-2,1.1999885E-2,-6.797835E-4,1.36480825E-2,-7.914028E-3,2.2105444E-3,8.240773E-3,1.283053E-2],"split_indices":[0,0,0,9,0,0,0,2,2,2,0,0,0,0,0,6,6,0,9,0,2,2,6,6,2,6,6,6,9,0,2,2,0,0,0,9,0,0,0,2,7,7,6,7,6,9,2,9,2,2,6,7,6,0,2,0,6,0,0,0,4,7,7,0,0,0,0,0,0,0,0,0,0,0,0,0,0,0,0,0,0,0,0,0,0,0,0,0,0,0,0,0,0,0,0,0,0,0,0,0,0,0,0,0,0,0,0,0,0,0,0,0,0],"split_type":[0,0,0,0,0,0,0,0,0,0,0,0,0,0,0,0,0,0,0,0,0,0,0,0,0,0,0,0,0,0,0,0,0,0,0,0,0,0,0,0,0,0,0,0,0,0,0,0,0,0,0,0,0,0,0,0,0,0,0,0,0,0,0,0,0,0,0,0,0,0,0,0,0,0,0,0,0,0,0,0,0,0,0,0,0,0,0,0,0,0,0,0,0,0,0,0,0,0,0,0,0,0,0,0,0,0,0,0,0,0,0,0,0],"sum_hessian":[8.449E3,4.149E3,4.3E3,2.127E3,2.022E3,1.903E3,2.397E3,1.221E3,9.06E2,1.229E3,7.93E2,1.03E3,8.73E2,9.54E2,1.443E3,9.7E2,2.51E2,7.1E2,1.96E2,7.76E2,4.53E2,3.24E2,4.69E2,3.97E2,6.33E2,4.54E2,4.19E2,4.41E2,5.13E2,1.343E3,1E2,8.98E2,7.2E1,4.2E1,2.09E2,4E0,7.06E2,1.1E2,8.6E1,4.09E2,3.67E2,1.95E2,2.58E2,1.42E2,1.82E2,1.4E2,3.29E2,9.8E1,2.99E2,6.5E1,5.68E2,1.72E2,2.82E2,1.08E2,3.11E2,1.07E2,3.34E2,1.93E2,3.2E2,6.39E2,7.04E2,5.5E1,4.5E1,9E0,8.89E2,1E0,2.08E2,2E0,2E0,4.37E2,2.69E2,4E0,8.2E1,3.96E2,1.3E1,1.7E2,1.97E2,1.33E2,6.2E1,1.73E2,8.5E1,1.08E2,3.4E1,2.5E1,1.57E2,9.6E1,4.4E1,5.7E1,2.72E2,8.5E1,1.3E1,6.2E1,2.37E2,5E0,6E1,1.51E2,4.17E2,1.19E2,5.3E1,1.68E2,1.14E2,4.3E1,2.68E2,2.35E2,9.9E1,3.92E2,2.47E2,1E0,7.03E2,3.5E1,2E1,8E0,3.7E1],"tree_param":{"num_deleted":"0","num_feature":"10","num_nodes":"113","size_leaf_vector":"1"}},{"base_weights":[2.5858363E-4,-1.4178428E-1,1.4440674E-1,-2.0775738E-1,-7.6363325E-2,7.262974E-2,2.0195785E-1,-2.3158419E-1,-1.6788438E-1,-1.08033575E-1,-3.2519426E-2,4.150157E-2,1.0282462E-1,1.6321187E-1,2.2563623E-1,3.0750675E-2,-2.3421702E-1,-1.8121403E-1,-1.2333791E-1,-1.2524107E-1,-7.730343E-2,-5.152857E-2,-1.941631E-2,1.2834916E-2,5.322114E-2,8.3209716E-2,1.2141443E-1,1.4766936E-1,8.829416E-3,2.3766765E-1,6.738749E-2,5.0663494E-2,-1.5848622E-3,-2.4286854E-1,-1.908397E-1,-9.996777E-3,-1.709322E-1,-7.486263E-3,-9.811533E-2,-1.338416E-1,-9.504011E-2,-7.18707E-2,-9.927255E-2,-6.891286E-2,-3.515403E-2,-2.8625611E-2,-7.919839E-3,-1.0762801E-2,1.751823E-2,4.375603E-2,6.466899E-2,6.437374E-2,8.590778E-2,5.266933E-3,1.2615186E-1,6.803594E-3,1.5225486E-1,2.1217626E-1,2.5742266E-1,2.0636746E-1,-8.998569E-2,3.438767E-3,7.587105E-4,-1.3392555E-2,-1.1844594E-2,-1.1386857E-2,-8.653425E-3,-9.486362E-3,-7.9386225E-3,-5.58794E-3,-3.8631563E-3,-5.505308E-3,-6.97219E-3,-3.7260477E-3,-5.3919773E-3,-4.0288325E-3,-3.208495E-3,-5.6575187E-3,-2.5464634E-3,-2.7680006E-3,-4.506762E-3,-2.048444E-3,-8.0301956E-4,-2.0407343E-3,-1.1270178E-3,-1.148191E-3,-7.864569E-6,-1.12073125E-4,-9.0627896E-4,8.8687586E-5,1.6080795E-3,1.2145268E-3,2.4483232E-3,3.3961048E-3,2.5158615E-3,3.6773705E-3,2.6413787E-3,3.627489E-3,4.626992E-3,5.0585098E-3,6.5109194E-3,7.924674E-3,6.6673323E-3,1.0135836E-2,1.1033655E-2,-2.0178012E-3,1.2953894E-2,4.713909E-3,1.21171195E-2,-7.091114E-3,7.965782E-4],"categories":[],"categories_nodes":[],"categories_segments":[],"categories_sizes":[],"default_left":[0,0,0,0,0,0,0,0,0,0,0,0,0,0,0,0,0,0,0,0,0,0,0,0,0,0,0,0,0,0,0,0,0,0,0,0,0,0,0,0,0,0,0,0,0,0,0,0,0,0,0,0,0,0,0,0,0,0,0,0,0,0,0,0,0,0,0,0,0,0,0,0,0,0,0,0,0,0,0,0,0,0,0,0,0,0,0,0,0,0,0,0,0,0,0,0,0,0,0,0,0,0,0,0,0,0,0,0,0,0,0],"id":4,"left_children":[1,3,5,7,9,11,13,15,17,19,21,23,25,27,29,31,33,35,37,39,41,43,45,47,49,51,53,55,-1,57,59,61,-1,63,65,-1,67,-1,69,71,73,75,77,79,81,83,85,87,89,91,93,95,97,-1,99,-1,101,103,105,107,109,-1,-1,-1,-1,-1,-1,-1,-1,-1,-1,-1,-1,-1,-1,-1,-1,-1,-1,-1,-1,-1,-1,-1,-1,-1,-1,-1,-1,-1,-1,-1,-1,-1,-1,-1,-1,-1,-1,-1,-1,-1,-1,-1,-1,-1,-1,-1,-1,-1,-1],"loss_changes":[1.7256514E2,1.8305656E1,1.7264671E1,1.9685669E0,2.9582577E0,1.746789E0,2.0925522E0,9.1889954E-1,4.4911766E-1,6.449585E-1,2.2217435E-1,3.0806506E-1,3.3447838E-1,1.5771103E-1,2.721878E0,1.9015089E-2,4.441452E-1,8.305168E-2,1.091032E-1,1.9299793E-1,4.6215773E-2,1.0147822E-1,5.6098536E-2,2.9806703E-2,6.781793E-2,1.8000126E-2,2.3496151E-2,1.3523102E-3,0E0,6.1816406E-1,2.2713573E0,6.0269292E-3,0E0,9.870148E-2,1.0615444E-1,0E0,6.129265E-2,0E0,1.9245803E-2,6.62899E-2,3.897512E-2,1.9098759E-2,5.19346E-2,4.5631886E-2,2.0437092E-2,2.0961225E-2,2.7789935E-2,2.7827048E-3,5.158662E-2,3.5323083E-2,1.0261893E-2,2.681762E-3,2.889967E-2,0E0,2.4210453E-2,0E0,1.2956619E-2,2.6073456E-3,3.7913895E-1,1.9893456E-1,2.7128854E-1,0E0,0E0,0E0,0E0,0E0,0E0,0E0,0E0,0E0,0E0,0E0,0E0,0E0,0E0,0E0,0E0,0E0,0E0,0E0,0E0,0E0,0E0,0E0,0E0,0E0,0E0,0E0,0E0,0E0,0E0,0E0,0E0,0E0,0E0,0E0,0E0,0E0,0E0,0E0,0E0,0E0,0E0,0E0,0E0,0E0,0E0,0E0,0E0,0E0,0E0],"parents":[2147483647,0,0,1,1,2,2,3,3,4,4,5,5,6,6,7,7,8,8,9,9,10,10,11,11,12,12,13,13,14,14,15,15,16,16,17,17,18,18,19,19,20,20,21,21,22,22,23,23,24,24,25,25,26,26,27,27,29,29,30,30,31,31,33,33,34,34,36,36,38,38,39,39,40,40,41,41,42,42,43,43,44,44,45,45,46,46,47,47,48,48,49,49,50,50,51,51,52,52,54,54,56,56,57,57,58,58,59,59,60,60],"right_children":[2,4,6,8,10,12,14,16,18,20,22,24,26,28,30,32,34,36,38,40,42,44,46,48,50,52,54,56,-1,58,60,62,-1,64,66,-1,68,-1,70,72,74,76,78,80,82,84,86,88,90,92,94,96,98,-1,100,-1,102,104,106,108,110,-1,-1,-1,-1,-1,-1,-1,-1,-1,-1,-1,-1,-1,-1,-1,-1,-1,-1,-1,-1,-1,-1,-1,-1,-1,-1,-1,-1,-1,-1,-1,-1,-1,-1,-1,-1,-1,-1,-1,-1,-1,-1,-1,-1,-1,-1,-1,-1,-1,-1],"split_conditions":[-1.021266E-1,-1.1181244E-1,-9.388252E-2,-1.1579127E-1,-1.0698819E-1,-9.782785E-2,-9.00115E-2,3.575094E-1,-5.0364727E-1,-2.5060982E-1,-1.0487847E-1,-1.00719094E-1,-9.606308E-2,-9.222401E-2,9.9297315E-2,5.9463266E-2,-7.0341367E-1,-9.1621004E-2,-5.4659348E-2,-1.0861476E-1,-5.024531E-2,-5.0843425E-2,-9.2408605E-2,-3.971052E-1,-9.903709E-2,-2.239743E-1,-6.803268E-2,-6.2256515E-2,8.829416E-3,-8.716915E-2,-2.1262083E0,-6.1579496E-2,-1.5848622E-3,-5.9992593E-2,-5.7195824E-2,-9.996777E-3,-1.1381937E-1,-7.486263E-3,3.846045E-1,-5.4140583E-2,-5.2966543E-2,-5.1710587E-2,-7.7478945E-2,-4.916228E-2,8.655837E-2,-8.670642E-2,-8.500105E-2,7.7526666E-2,-7.899405E-2,-7.92966E-2,-1.03107356E-1,-1.4826585E-1,-7.085245E-2,5.266933E-3,-9.07967E-2,6.803594E-3,-5.159979E-2,-8.857627E-2,-4.7314756E-2,3.501622E0,3.2071147E0,3.438767E-3,7.587105E-4,-1.3392555E-2,-1.1844594E-2,-1.1386857E-2,-8.653425E-3,-9.486362E-3,-7.9386225E-3,-5.58794E-3,-3.8631563E-3,-5.505308E-3,-6.97219E-3,-3.7260477E-3,-5.3919773E-3,-4.0288325E-3,-3.208495E-3,-5.6575187E-3,-2.5464634E-3,-2.7680006E-3,-4.506762E-3,-2.048444E-3,-8.0301956E-4,-2.0407343E-3,-1.1270178E-3,-1.148191E-3,-7.864569E-6,-1.12073125E-4,-9.0627896E-4,8.8687586E-5,1.6080795E-3,1.2145268E-3,2.4483232E-3,3.3961048E-3,2.5158615E-3,3.6773705E-3,2.6413787E-3,3.627489E-3,4.626992E-3,5.0585098E-3,6.5109194E-3,7.924674E-3,6.6673323E-3,1.0135836E-2,1.1033655E-2,-2.0178012E-3,1.2953894E-2,4.713909E-3,1.21171195E-2,-7.091114E-3,7.965782E-4],"split_indices":[0,0,0,0,0,0,0,3,2,2,0,0,0,0,4,3,2,6,1,0,1,2,4,2,0,2,6,6,0,0,3,1,0,1,1,0,0,0,3,1,1,1,2,1,3,6,6,3,6,6,3,3,6,0,2,0,6,0,1,7,7,0,0,0,0,0,0,0,0,0,0,0,0,0,0,0,0,0,0,0,0,0,0,0,0,0,0,0,0,0,0,0,0,0,0,0,0,0,0,0,0,0,0,0,0,0,0,0,0,0,0],"split_type":[0,0,0,0,0,0,0,0,0,0,0,0,0,0,0,0,0,0,0,0,0,0,0,0,0,0,0,0,0,0,0,0,0,0,0,0,0,0,0,0,0,0,0,0,0,0,0,0,0,0,0,0,0,0,0,0,0,0,0,0,0,0,0,0,0,0,0,0,0,0,0,0,0,0,0,0,0,0,0,0,0,0,0,0,0,0,0,0,0,0,0,0,0,0,0,0,0,0,0,0,0,0,0,0,0,0,0,0,0,0,0],"sum_hessian":[8.426E3,4.244E3,4.182E3,2.112E3,2.132E3,1.862E3,2.32E3,1.319E3,7.93E2,1.237E3,8.95E2,9.18E2,9.44E2,8.83E2,1.437E3,1.3E1,1.306E3,6.08E2,1.85E2,7.91E2,4.46E2,3.64E2,5.31E2,2.67E2,6.51E2,4.62E2,4.82E2,4.14E2,4.69E2,1.335E3,1.02E2,1E1,3E0,1.085E3,2.21E2,2.09E2,3.99E2,8.8E1,9.7E1,6.13E2,1.78E2,3.61E2,8.5E1,1.75E2,1.89E2,2.94E2,2.37E2,4.4E1,2.23E2,3.59E2,2.92E2,6.1E1,4.01E2,1.15E2,3.67E2,1.26E2,2.88E2,5.88E2,7.47E2,5.4E1,4.8E1,6E0,4E0,2.01E2,8.84E2,6.8E1,1.53E2,1.51E2,2.48E2,5.6E1,4.1E1,1.21E2,4.92E2,7.1E1,1.07E2,1.65E2,1.96E2,6.5E1,2E1,1.09E2,6.6E1,1.44E2,4.5E1,9.6E1,1.98E2,8E1,1.57E2,2.1E1,2.3E1,1.08E2,1.15E2,7.7E1,2.82E2,2.35E2,5.7E1,3.1E1,3E1,1.37E2,2.64E2,5.5E1,3.12E2,2.11E2,7.7E1,2.9E2,2.98E2,4E0,7.43E2,1.4E1,4E1,3.2E1,1.6E1],"tree_param":{"num_deleted":"0","num_feature":"10","num_nodes":"111","size_leaf_vector":"1"}},{"base_weights":[1.689891E-4,-1.3478503E-1,1.378949E-1,-1.9721676E-1,-7.223175E-2,7.639001E-2,1.9945146E-1,-2.2446284E-1,-1.6151711E-1,-1.01759106E-1,-3.0779112E-2,4.8747264E-2,1.1653467E-1,2.0484391E-1,2.252929E-2,-2.3377949E-1,-1.873806E-1,-1.723311E-1,-1.13264486E-1,-1.18906684E-1,-7.23657E-2,-4.6000976E-2,-1.5793288E-2,1.9188516E-2,6.2442146E-2,9.89238E-2,1.2669474E-1,1.7516263E-1,2.3470457E-1,2.0900723E-1,-1.05653755E-1,-7.6314315E-2,-2.343567E-1,-1.9343945E-1,-1.1634687E-1,9.451261E-2,-1.7423101E-1,-1.3388877E-1,-8.453024E-2,-1.2991606E-1,-9.887973E-2,-6.820378E-2,-9.547741E-2,-6.1805334E-2,-3.3452403E-2,-3.1330463E-2,-1.0240195E-2,8.37981E-3,3.205236E-2,5.1692437E-2,7.217734E-2,9.999648E-2,2.249603E-3,5.171135E-3,1.2835631E-1,1.5923974E-1,9.573382E-3,5.323782E-2,2.3813349E-1,3.1067515E-2,2.3994774E-1,-1.17366746E-1,8.193174E-3,-8.123033E-4,-7.914684E-3,-1.1975632E-2,-1.0625617E-2,-1.122695E-2,-9.071881E-3,-4.8E-3,-8.316313E-3,6.9931E-3,1.8436209E-3,-9.323003E-3,-7.838397E-3,3.8487464E-4,-6.7706034E-3,9.757504E-5,-4.4080378E-3,-5.084219E-3,-6.7700283E-3,-5.5330754E-3,-3.860792E-3,-3.606734E-3,-2.8748226E-3,-5.145989E-3,-2.6084862E-3,-2.529919E-3,-4.2995447E-3,-1.875142E-3,-6.91038E-4,7.434982E-4,-1.6540984E-3,-1.5853795E-3,-3.6006383E-4,-4.723265E-4,6.119252E-4,-9.2538E-5,1.8640045E-3,1.2562794E-3,2.7340304E-3,2.8534406E-3,3.7197606E-3,3.8262275E-3,5.1448676E-3,5.983097E-3,6.607746E-3,7.528059E-3,8.359181E-3,-1.6100679E-3,6.3035E-3,1.1120505E-2,1.2689396E-2,2.6332214E-4,3.356795E-3,3.50755E-3,1.2234638E-2,-8.273206E-3,-1.3265399E-3],"categories":[],"categories_nodes":[],"categories_segments":[],"categories_sizes":[],"default_left":[0,0,0,0,0,0,0,0,0,0,0,0,0,0,0,0,0,0,0,0,0,0,0,0,0,0,0,0,0,0,0,0,0,0,0,0,0,0,0,0,0,0,0,0,0,0,0,0,0,0,0,0,0,0,0,0,0,0,0,0,0,0,0,0,0,0,0,0,0,0,0,0,0,0,0,0,0,0,0,0,0,0,0,0,0,0,0,0,0,0,0,0,0,0,0,0,0,0,0,0,0,0,0,0,0,0,0,0,0,0,0,0,0,0,0,0,0,0,0],"id":5,"left_children":[1,3,5,7,9,11,13,15,17,19,21,23,25,27,29,31,33,35,37,39,41,43,45,47,49,51,53,55,57,59,61,63,65,67,69,71,73,75,77,79,81,83,85,87,89,91,93,95,97,99,101,103,-1,-1,105,107,-1,109,111,113,115,117,-1,-1,-1,-1,-1,-1,-1,-1,-1,-1,-1,-1,-1,-1,-1,-1,-1,-1,-1,-1,-1,-1,-1,-1,-1,-1,-1,-1,-1,-1,-1,-1,-1,-1,-1,-1,-1,-1,-1,-1,-1,-1,-1,-1,-1,-1,-1,-1,-1,-1,-1,-1,-1,-1,-1,-1,-1],"loss_changes":[1.5724318E2,1.667315E1,1.5836876E1,2.0433273E0,2.6113033E0,2.3202696E0,1.9912338E0,3.7422943E-1,4.6523476E-1,6.19915E-1,2.022934E-1,5.019729E-1,1.4027023E-1,1.7580872E0,1.5279909E0,6.964111E-2,8.4228516E-2,4.002514E-1,9.1206074E-2,1.6045475E-1,3.7927628E-2,8.5392475E-2,3.850487E-2,5.465281E-2,8.51171E-2,1.383996E-2,7.528305E-3,2.3484421E-1,6.151619E-1,1.3568962E-1,1.3919252E-1,2.2050131E-2,5.7109833E-2,4.3988228E-2,6.4050257E-3,1.05266385E-2,1.3136292E-1,2.2394538E-2,2.3720026E-2,6.4269066E-2,6.36878E-2,1.2477994E-2,1.6547918E-2,4.823208E-2,1.9201815E-2,1.00405365E-2,2.1495812E-2,1.4973468E-2,3.1971544E-2,3.093636E-2,1.05986595E-2,1.3233185E-2,0E0,0E0,6.3323975E-4,1.0884285E-2,0E0,1.2851402E-1,1.8723297E-1,4.299448E-3,5.596876E-4,1.5726197E-1,0E0,0E0,0E0,0E0,0E0,0E0,0E0,0E0,0E0,0E0,0E0,0E0,0E0,0E0,0E0,0E0,0E0,0E0,0E0,0E0,0E0,0E0,0E0,0E0,0E0,0E0,0E0,0E0,0E0,0E0,0E0,0E0,0E0,0E0,0E0,0E0,0E0,0E0,0E0,0E0,0E0,0E0,0E0,0E0,0E0,0E0,0E0,0E0,0E0,0E0,0E0,0E0,0E0,0E0,0E0,0E0,0E0],"parents":[2147483647,0,0,1,1,2,2,3,3,4,4,5,5,6,6,7,7,8,8,9,9,10,10,11,11,12,12,13,13,14,14,15,15,16,16,17,17,18,18,19,19,20,20,21,21,22,22,23,23,24,24,25,25,26,26,27,27,28,28,29,29,30,30,31,31,32,32,33,33,34,34,35,35,36,36,37,37,38,38,39,39,40,40,41,41,42,42,43,43,44,44,45,45,46,46,47,47,48,48,49,49,50,50,51,51,54,54,55,55,57,57,58,58,59,59,60,60,61,61],"right_children":[2,4,6,8,10,12,14,16,18,20,22,24,26,28,30,32,34,36,38,40,42,44,46,48,50,52,54,56,58,60,62,64,66,68,70,72,74,76,78,80,82,84,86,88,90,92,94,96,98,100,102,104,-1,-1,106,108,-1,110,112,114,116,118,-1,-1,-1,-1,-1,-1,-1,-1,-1,-1,-1,-1,-1,-1,-1,-1,-1,-1,-1,-1,-1,-1,-1,-1,-1,-1,-1,-1,-1,-1,-1,-1,-1,-1,-1,-1,-1,-1,-1,-1,-1,-1,-1,-1,-1,-1,-1,-1,-1,-1,-1,-1,-1,-1,-1,-1,-1],"split_conditions":[-1.021266E-1,-1.11627266E-1,-9.294354E-2,-2.3813249E-1,-1.0698819E-1,-9.6694455E-2,1.0845159E-1,-7.5668466E-1,-4.903295E-1,-2.5060982E-1,-1.04546234E-1,-1.0007386E-1,-9.519301E-2,-8.817935E-2,-2.1262083E0,3.575094E-1,-5.6106422E-2,-1.2779665E-1,-5.4386314E-2,-1.09172985E-1,-5.007239E-2,-5.0843425E-2,-2.1809767E-1,-1.0100167E-1,-2.0861425E-1,-2.0308182E-1,-9.07967E-2,-9.0548165E-2,-4.7314756E-2,7.579223E0,4.317382E0,-1.2779665E-1,-1.18249014E-1,-5.7539847E-2,-1.9491996E-1,-8.0758005E-1,-1.1337895E-1,-1.2779665E-1,-1.1517645E-1,-5.4386314E-2,2.942875E-1,-1.0785402E-1,-7.7478945E-2,-4.9034864E-2,8.655837E-2,-2.2987647E-1,-4.7701174E-1,-3.971052E-1,-3.4383413E-1,-2.905631E-1,-2.239743E-1,-1.8402103E-1,2.249603E-3,5.171135E-3,-2.0216037E-1,-9.176203E-2,9.573382E-3,2.2443135E0,-8.547945E-2,4.317382E0,3.501622E0,5.589835E0,8.193174E-3,-8.123033E-4,-7.914684E-3,-1.1975632E-2,-1.0625617E-2,-1.122695E-2,-9.071881E-3,-4.8E-3,-8.316313E-3,6.9931E-3,1.8436209E-3,-9.323003E-3,-7.838397E-3,3.8487464E-4,-6.7706034E-3,9.757504E-5,-4.4080378E-3,-5.084219E-3,-6.7700283E-3,-5.5330754E-3,-3.860792E-3,-3.606734E-3,-2.8748226E-3,-5.145989E-3,-2.6084862E-3,-2.529919E-3,-4.2995447E-3,-1.875142E-3,-6.91038E-4,7.434982E-4,-1.6540984E-3,-1.5853795E-3,-3.6006383E-4,-4.723265E-4,6.119252E-4,-9.2538E-5,1.8640045E-3,1.2562794E-3,2.7340304E-3,2.8534406E-3,3.7197606E-3,3.8262275E-3,5.1448676E-3,5.983097E-3,6.607746E-3,7.528059E-3,8.359181E-3,-1.6100679E-3,6.3035E-3,1.1120505E-2,1.2689396E-2,2.6332214E-4,3.356795E-3,3.50755E-3,1.2234638E-2,-8.273206E-3,-1.3265399E-3],"split_indices":[0,0,0,9,0,0,1,2,2,2,0,0,0,0,3,3,1,0,1,0,1,2,9,0,9,9,2,0,1,0,2,0,0,1,4,3,0,0,0,1,3,0,2,1,3,9,2,2,2,2,2,2,0,0,9,0,0,9,0,2,7,4,0,0,0,0,0,0,0,0,0,0,0,0,0,0,0,0,0,0,0,0,0,0,0,0,0,0,0,0,0,0,0,0,0,0,0,0,0,0,0,0,0,0,0,0,0,0,0,0,0,0,0,0,0,0,0,0,0],"split_type":[0,0,0,0,0,0,0,0,0,0,0,0,0,0,0,0,0,0,0,0,0,0,0,0,0,0,0,0,0,0,0,0,0,0,0,0,0,0,0,0,0,0,0,0,0,0,0,0,0,0,0,0,0,0,0,0,0,0,0,0,0,0,0,0,0,0,0,0,0,0,0,0,0,0,0,0,0,0,0,0,0,0,0,0,0,0,0,0,0,0,0,0,0,0,0,0,0,0,0,0,0,0,0,0,0,0,0,0,0,0,0,0,0,0,0,0,0,0,0],"sum_hessian":[8.458E3,4.272E3,4.186E3,2.137E3,2.135E3,2.095E3,2.091E3,1.209E3,9.28E2,1.246E3,8.89E2,1.242E3,8.53E2,2.029E3,6.2E1,9.62E2,2.47E2,7.56E2,1.72E2,7.85E2,4.61E2,4.4E2,4.49E2,3.94E2,8.48E2,3.16E2,5.37E2,1.021E3,1.008E3,2.5E1,3.7E1,4E0,9.58E2,2.26E2,2.1E1,5E0,7.51E2,9.8E1,7.4E1,5.03E2,2.82E2,3.94E2,6.7E1,1.93E2,2.47E2,1.17E2,3.32E2,2.15E2,1.79E2,4.06E2,4.42E2,3.09E2,7E0,4E1,4.97E2,5.22E2,4.99E2,1.9E1,9.89E2,4E0,2.1E1,3.6E1,1E0,3E0,1E0,7.67E2,1.91E2,5.8E1,1.68E2,1.7E1,4E0,2E0,3E0,4.36E2,3.15E2,1E0,9.7E1,3E0,7.1E1,8.5E1,4.18E2,1.8E2,1.02E2,2.84E2,1.1E2,5.6E1,1.1E1,1.34E2,5.9E1,2.04E2,4.3E1,4E0,1.13E2,4E1,2.92E2,3.8E1,1.77E2,2.4E1,1.55E2,4.2E1,3.64E2,6E1,3.82E2,3.7E1,2.72E2,1.61E2,3.36E2,2.59E2,2.63E2,9E0,1E1,5.01E2,4.88E2,3E0,1E0,1E0,2E1,2.3E1,1.3E1],"tree_param":{"num_deleted":"0","num_feature":"10","num_nodes":"119","size_leaf_vector":"1"}},{"base_weights":[-2.5772993E-4,-1.2904848E-1,1.2963858E-1,-1.8552943E-1,-6.809332E-2,6.2723145E-2,1.8061417E-1,-2.106487E-1,-1.500935E-1,-9.5524125E-2,-3.0773392E-2,3.6765315E-2,9.0938725E-2,1.460214E-1,2.0369492E-1,-2.1899907E-1,-1.7023043E-1,5.56428E-2,-1.5266131E-1,-1.1162506E-1,-6.9218755E-2,-4.7996063E-2,-1.9561045E-2,1.0469968E-2,4.858823E-2,7.220089E-2,1.05973765E-1,1.3107239E-1,1.5997072E-1,2.147839E-1,5.4618184E-2,-2.312562E-1,-2.084383E-1,-1.8544024E-1,-1.4053479E-1,6.759996E-3,2.6211381E-2,-1.6423637E-1,-1.0684979E-1,-1.2738429E-1,-9.677957E-2,-6.483404E-2,-9.236329E-2,-6.268697E-2,-3.2034878E-2,-3.0526696E-2,-1.2497121E-2,-5.584527E-3,1.5968477E-2,1.9595036E-2,5.122206E-2,6.1876554E-2,7.706664E-2,9.53016E-2,1.12637244E-1,5.273564E-3,1.32465E-1,7.4845823E-3,8.296385E-3,1.9419846E-1,2.3501487E-1,1.8356068E-1,-9.469061E-2,-6.748484E-3,-1.1619671E-2,-9.1274325E-3,-1.0726522E-2,-3.853336E-4,-9.331049E-3,-4.9119294E-3,-7.519435E-3,1.63567E-3,-8.0766977E-4,-8.761811E-3,-7.2866054E-3,-6.5763444E-3,-4.3608774E-3,-4.5595597E-3,-6.6086124E-3,-5.3494973E-3,-4.0616686E-3,-3.454497E-3,-2.687982E-3,-4.9297013E-3,-2.2871282E-3,-2.5230066E-3,-4.164775E-3,-1.9057755E-3,-4.984516E-4,-2.272819E-3,-1.1713859E-3,-1.6439222E-3,-4.8630193E-4,-6.8903156E-4,6.8926245E-5,-5.051365E-4,1.1749127E-3,-4.388443E-4,1.260735E-3,1.600099E-3,2.851366E-3,3.581489E-3,2.8289333E-3,4.2989138E-3,3.1822864E-3,2.2967765E-3,4.832718E-3,4.8704674E-3,5.805247E-3,5.9981416E-3,6.8291775E-3,9.295864E-3,1.027818E-2,1.1804372E-2,-4.0002004E-3,4.3387027E-3,1.0928067E-2,-7.131714E-3,8.5490645E-4],"categories":[],"categories_nodes":[],"categories_segments":[],"categories_sizes":[],"default_left":[0,0,0,0,0,0,0,0,0,0,0,0,0,0,0,0,0,0,0,0,0,0,0,0,0,0,0,0,0,0,0,0,0,0,0,0,0,0,0,0,0,0,0,0,0,0,0,0,0,0,0,0,0,0,0,0,0,0,0,0,0,0,0,0,0,0,0,0,0,0,0,0,0,0,0,0,0,0,0,0,0,0,0,0,0,0,0,0,0,0,0,0,0,0,0,0,0,0,0,0,0,0,0,0,0,0,0,0,0,0,0,0,0,0,0,0,0,0,0],"id":6,"left_children":[1,3,5,7,9,11,13,15,17,19,21,23,25,27,29,31,33,35,37,39,41,43,45,47,49,51,53,55,57,59,61,63,65,67,69,-1,71,73,75,77,79,81,83,85,87,89,91,93,95,97,99,101,103,105,107,-1,109,-1,-1,111,113,115,117,-1,-1,-1,-1,-1,-1,-1,-1,-1,-1,-1,-1,-1,-1,-1,-1,-1,-1,-1,-1,-1,-1,-1,-1,-1,-1,-1,-1,-1,-1,-1,-1,-1,-1,-1,-1,-1,-1,-1,-1,-1,-1,-1,-1,-1,-1,-1,-1,-1,-1,-1,-1,-1,-1,-1,-1],"loss_changes":[1.4092885E2,1.455043E1,1.4294632E1,1.9222031E0,2.0813456E0,1.3259902E0,1.8705139E0,3.9540482E-1,4.91354E-1,4.890871E-1,1.6590524E-1,2.9390192E-1,2.3716688E-1,1.7838478E-1,2.3439445E0,8.887863E-2,7.511282E-2,2.4553973E-2,4.6128654E-1,1.575222E-1,3.9475918E-2,7.771653E-2,4.0285274E-2,2.6130527E-2,4.8861384E-2,1.4823198E-2,2.3400784E-2,2.6788712E-3,5.1670074E-3,5.065918E-1,1.9426067E0,2.1303177E-2,5.2160263E-2,2.8990746E-2,1.8568635E-2,0E0,3.2829982E-3,1.20809555E-1,7.815504E-2,4.8425674E-2,5.1309824E-2,1.4195681E-2,1.5533209E-2,4.014486E-2,2.1758765E-2,2.0662084E-2,1.7809767E-2,4.3563093E-3,4.3425683E-2,9.1499835E-3,6.489849E-2,2.6645958E-3,2.574408E-2,8.315206E-3,4.003763E-3,0E0,6.219864E-3,0E0,0E0,2.4183273E-2,2.4324036E-1,1.6396451E-1,2.5433815E-1,0E0,0E0,0E0,0E0,0E0,0E0,0E0,0E0,0E0,0E0,0E0,0E0,0E0,0E0,0E0,0E0,0E0,0E0,0E0,0E0,0E0,0E0,0E0,0E0,0E0,0E0,0E0,0E0,0E0,0E0,0E0,0E0,0E0,0E0,0E0,0E0,0E0,0E0,0E0,0E0,0E0,0E0,0E0,0E0,0E0,0E0,0E0,0E0,0E0,0E0,0E0,0E0,0E0,0E0,0E0,0E0],"parents":[2147483647,0,0,1,1,2,2,3,3,4,4,5,5,6,6,7,7,8,8,9,9,10,10,11,11,12,12,13,13,14,14,15,15,16,16,17,17,18,18,19,19,20,20,21,21,22,22,23,23,24,24,25,25,26,26,27,27,28,28,29,29,30,30,31,31,32,32,33,33,34,34,36,36,37,37,38,38,39,39,40,40,41,41,42,42,43,43,44,44,45,45,46,46,47,47,48,48,49,49,50,50,51,51,52,52,53,53,54,54,56,56,59,59,60,60,61,61,62,62],"right_children":[2,4,6,8,10,12,14,16,18,20,22,24,26,28,30,32,34,36,38,40,42,44,46,48,50,52,54,56,58,60,62,64,66,68,70,-1,72,74,76,78,80,82,84,86,88,90,92,94,96,98,100,102,104,106,108,-1,110,-1,-1,112,114,116,118,-1,-1,-1,-1,-1,-1,-1,-1,-1,-1,-1,-1,-1,-1,-1,-1,-1,-1,-1,-1,-1,-1,-1,-1,-1,-1,-1,-1,-1,-1,-1,-1,-1,-1,-1,-1,-1,-1,-1,-1,-1,-1,-1,-1,-1,-1,-1,-1,-1,-1,-1,-1,-1,-1,-1,-1],"split_conditions":[-1.0236105E-1,-1.1152139E-1,-9.408695E-2,-2.3736466E-1,-1.0698819E-1,-9.782785E-2,-8.99141E-2,-7.0341367E-1,5.9463266E-2,-2.5060982E-1,-1.0510638E-1,-1.00719094E-1,-9.638185E-2,-9.222401E-2,9.9297315E-2,-2.469242E-1,-5.6515973E-2,-8.0758005E-1,-4.903295E-1,-1.0966846E-1,-5.007239E-2,-5.0843425E-2,-2.1809767E-1,-8.259061E-2,-3.0388087E-1,-7.085245E-2,-2.0398784E-1,-7.7478945E-2,-9.130004E-2,-8.6616315E-2,-2.1262083E0,6.826506E-1,-1.1961707E0,-1.2779665E-1,-2.4005426E-1,6.759996E-3,-8.325642E-2,-1.1284228E-1,-5.4659348E-2,-5.476856E-2,3.033192E-1,-1.04589485E-1,-7.7478945E-2,-4.916228E-2,8.655837E-2,-8.801345E-2,-5.0364727E-1,2.4401096E-1,-3.971052E-1,-4.1042292E-1,-7.705208E-2,-5.095339E-1,-6.160326E-2,-2.5060982E-1,-6.663667E-2,5.273564E-3,-6.2430296E-2,7.4845823E-3,8.296385E-3,-8.806617E-2,3.536668E0,3.501622E0,3.2071147E0,-6.748484E-3,-1.1619671E-2,-9.1274325E-3,-1.0726522E-2,-3.853336E-4,-9.331049E-3,-4.9119294E-3,-7.519435E-3,1.63567E-3,-8.0766977E-4,-8.761811E-3,-7.2866054E-3,-6.5763444E-3,-4.3608774E-3,-4.5595597E-3,-6.6086124E-3,-5.3494973E-3,-4.0616686E-3,-3.454497E-3,-2.687982E-3,-4.9297013E-3,-2.2871282E-3,-2.5230066E-3,-4.164775E-3,-1.9057755E-3,-4.984516E-4,-2.272819E-3,-1.1713859E-3,-1.6439222E-3,-4.8630193E-4,-6.8903156E-4,6.8926245E-5,-5.051365E-4,1.1749127E-3,-4.388443E-4,1.260735E-3,1.600099E-3,2.851366E-3,3.581489E-3,2.8289333E-3,4.2989138E-3,3.1822864E-3,2.2967765E-3,4.832718E-3,4.8704674E-3,5.805247E-3,5.9981416E-3,6.8291775E-3,9.295864E-3,1.027818E-2,1.1804372E-2,-4.0002004E-3,4.3387027E-3,1.0928067E-2,-7.131714E-3,8.5490645E-4],"split_indices":[0,0,0,9,0,0,0,2,3,2,0,0,0,0,4,9,1,3,2,0,1,2,9,6,2,6,9,2,0,0,3,3,2,0,9,0,6,0,1,1,3,7,2,1,3,6,2,7,2,2,6,3,6,2,6,0,6,0,0,0,3,7,7,0,0,0,0,0,0,0,0,0,0,0,0,0,0,0,0,0,0,0,0,0,0,0,0,0,0,0,0,0,0,0,0,0,0,0,0,0,0,0,0,0,0,0,0,0,0,0,0,0,0,0,0,0,0,0,0],"split_type":[0,0,0,0,0,0,0,0,0,0,0,0,0,0,0,0,0,0,0,0,0,0,0,0,0,0,0,0,0,0,0,0,0,0,0,0,0,0,0,0,0,0,0,0,0,0,0,0,0,0,0,0,0,0,0,0,0,0,0,0,0,0,0,0,0,0,0,0,0,0,0,0,0,0,0,0,0,0,0,0,0,0,0,0,0,0,0,0,0,0,0,0,0,0,0,0,0,0,0,0,0,0,0,0,0,0,0,0,0,0,0,0,0,0,0,0,0,0,0],"sum_hessian":[8.422E3,4.229E3,4.193E3,2.194E3,2.035E3,1.814E3,2.379E3,1.281E3,9.13E2,1.172E3,8.63E2,9.46E2,8.68E2,9.55E2,1.424E3,1.058E3,2.23E2,1.1E1,9.02E2,7.25E2,4.47E2,3.39E2,5.24E2,2.94E2,6.52E2,3.89E2,4.79E2,4.66E2,4.89E2,1.325E3,9.9E1,4.8E2,5.78E2,1.44E2,7.9E1,2E0,9E0,7.18E2,1.84E2,3.48E2,3.77E2,3.79E2,6.8E1,1.75E2,1.64E2,2.04E2,3.2E2,7.5E1,2.19E2,5.5E1,5.97E2,1.29E2,2.6E2,1.9E2,2.89E2,2.8E1,4.38E2,1.89E2,3E2,6.62E2,6.63E2,5.3E1,4.6E1,7E0,4.73E2,1.16E2,4.62E2,1E0,1.43E2,1.7E1,6.2E1,8E0,1E0,4.45E2,2.73E2,7.9E1,1.05E2,4.3E1,3.05E2,2.24E2,1.53E2,2.7E2,1.09E2,5.9E1,9E0,1.12E2,6.3E1,1.28E2,3.6E1,6.4E1,1.4E2,3.7E1,2.83E2,3.4E1,4.1E1,4.9E1,1.7E2,9E0,4.6E1,1.4E2,4.57E2,4.1E1,8.8E1,1.53E2,1.07E2,6E0,1.84E2,5.9E1,2.3E2,1.16E2,3.22E2,3.93E2,2.69E2,6.61E2,2E0,1.5E1,3.8E1,3.2E1,1.4E1],"tree_param":{"num_deleted":"0","num_feature":"10","num_nodes":"119","size_leaf_vector":"1"}},{"base_weights":[5.5994245E-4,-1.2285118E-1,1.21945426E-1,-1.7772417E-1,-6.418552E-2,6.1329138E-2,1.7235453E-1,-2.0761776E-1,-1.5135191E-1,-9.3486294E-2,-3.133102E-2,3.2241914E-2,8.678093E-2,1.7775325E-1,3.1510408E-3,-2.1492186E-1,-1.7398654E-1,-1.6126464E-1,-1.0202759E-1,-1.0816577E-1,-6.646954E-2,-4.710518E-2,-1.6908469E-2,9.518267E-3,4.3587983E-2,6.885795E-2,1.03079796E-1,1.4283673E-1,2.039789E-1,1.7892763E-1,-1.0391191E-1,-8.944325E-2,-2.1542242E-1,-2.0413633E-1,-1.5764035E-1,8.135443E-2,-1.6287583E-1,-1.2901728E-1,-8.423218E-2,-1.23272926E-1,-9.724705E-2,-6.157021E-2,-9.208166E-2,-6.323578E-2,-3.3732127E-2,-2.6616676E-2,-9.6611865E-3,-1.3775167E-2,1.2910439E-2,1.3008671E-2,4.6204526E-2,7.579137E-2,6.365354E-2,9.542149E-2,5.546537E-3,1.2913778E-1,7.83766E-3,3.4958266E-2,2.0662144E-1,5.415581E-2,1.0896969E-2,-9.191389E-3,-5.0725773E-2,-1.8658765E-3,-7.448654E-3,-1.1696252E-2,-1.0516368E-2,-3.757E-4,-1.0361823E-2,-8.058841E-3,-4.707537E-3,6.534663E-3,1.7740125E-3,-8.588186E-3,-6.930941E-3,4.4581495E-4,-6.6432855E-3,1.3185815E-4,-4.3231538E-3,-5.037334E-3,-6.55264E-3,-4.1084727E-3,-5.3291204E-3,-3.461254E-3,-2.787293E-3,-4.987133E-3,-3.147993E-3,-2.6351034E-3,-4.1474197E-3,-2.5486888E-3,-1.5358157E-3,9.188967E-4,-1.4226626E-3,-1.3940708E-3,-3.6017867E-4,-1.64602E-4,-9.757018E-4,7.6470437E-4,-7.756787E-4,-7.810917E-4,9.0761855E-4,1.8748622E-3,2.6349495E-3,4.2426744E-3,3.4646138E-3,2.7204584E-3,3.3207368E-3,3.765753E-3,4.890143E-3,6.0812216E-3,6.8736197E-3,-2.3338315E-3,5.670757E-3,9.509587E-3,1.1301745E-2,4.9140095E-4,4.80133E-3,-3.1763874E-3,7.6932358E-3],"categories":[],"categories_nodes":[],"categories_segments":[],"categories_sizes":[],"default_left":[0,0,0,0,0,0,0,0,0,0,0,0,0,0,0,0,0,0,0,0,0,0,0,0,0,0,0,0,0,0,0,0,0,0,0,0,0,0,0,0,0,0,0,0,0,0,0,0,0,0,0,0,0,0,0,0,0,0,0,0,0,0,0,0,0,0,0,0,0,0,0,0,0,0,0,0,0,0,0,0,0,0,0,0,0,0,0,0,0,0,0,0,0,0,0,0,0,0,0,0,0,0,0,0,0,0,0,0,0,0,0,0,0,0,0,0,0,0,0],"id":7,"left_children":[1,3,5,7,9,11,13,15,17,19,21,23,25,27,29,31,33,35,37,39,41,43,45,47,49,51,53,55,57,59,61,63,65,67,69,71,73,75,77,79,81,83,85,87,89,91,93,95,97,99,101,103,105,107,-1,109,-1,111,113,115,-1,-1,117,-1,-1,-1,-1,-1,-1,-1,-1,-1,-1,-1,-1,-1,-1,-1,-1,-1,-1,-1,-1,-1,-1,-1,-1,-1,-1,-1,-1,-1,-1,-1,-1,-1,-1,-1,-1,-1,-1,-1,-1,-1,-1,-1,-1,-1,-1,-1,-1,-1,-1,-1,-1,-1,-1,-1,-1],"loss_changes":[1.2673349E2,1.3492977E1,1.3021622E1,1.6769485E0,1.9503117E0,1.4319453E0,2.1260223E0,2.1144485E-1,5.482693E-1,4.1795635E-1,2.1715194E-1,2.3317367E-1,2.9466724E-1,2.036705E0,1.3923913E0,3.2741547E-2,5.9487343E-2,3.885193E-1,8.3269835E-2,1.0232353E-1,4.2013764E-2,9.64489E-2,3.5062626E-2,2.4119489E-2,4.7726274E-2,1.3037205E-2,2.1821976E-2,1.6487122E-1,5.6716156E-1,1.2448913E-1,1.8619436E-1,9.955872E-3,2.8476715E-2,3.623557E-2,1.2890816E-2,1.1206619E-2,1.8186569E-1,4.152763E-2,2.367735E-2,3.7094116E-2,4.8529148E-2,1.0497212E-2,6.8832636E-3,3.840375E-2,1.1537701E-2,1.8207029E-2,1.2740076E-2,2.2820495E-3,1.819177E-2,7.499641E-3,2.9465318E-2,6.3117743E-3,3.763318E-3,6.040573E-3,0E0,1.4277458E-2,0E0,1.3979502E-1,3.608055E-1,1.3904566E-2,0E0,0E0,8.573036E-2,0E0,0E0,0E0,0E0,0E0,0E0,0E0,0E0,0E0,0E0,0E0,0E0,0E0,0E0,0E0,0E0,0E0,0E0,0E0,0E0,0E0,0E0,0E0,0E0,0E0,0E0,0E0,0E0,0E0,0E0,0E0,0E0,0E0,0E0,0E0,0E0,0E0,0E0,0E0,0E0,0E0,0E0,0E0,0E0,0E0,0E0,0E0,0E0,0E0,0E0,0E0,0E0,0E0,0E0,0E0,0E0],"parents":[2147483647,0,0,1,1,2,2,3,3,4,4,5,5,6,6,7,7,8,8,9,9,10,10,11,11,12,12,13,13,14,14,15,15,16,16,17,17,18,18,19,19,20,20,21,21,22,22,23,23,24,24,25,25,26,26,27,27,28,28,29,29,30,30,31,31,32,32,33,33,34,34,35,35,36,36,37,37,38,38,39,39,40,40,41,41,42,42,43,43,44,44,45,45,46,46,47,47,48,48,49,49,50,50,51,51,52,52,53,53,55,55,57,57,58,58,59,59,62,62],"right_children":[2,4,6,8,10,12,14,16,18,20,22,24,26,28,30,32,34,36,38,40,42,44,46,48,50,52,54,56,58,60,62,64,66,68,70,72,74,76,78,80,82,84,86,88,90,92,94,96,98,100,102,104,106,108,-1,110,-1,112,114,116,-1,-1,118,-1,-1,-1,-1,-1,-1,-1,-1,-1,-1,-1,-1,-1,-1,-1,-1,-1,-1,-1,-1,-1,-1,-1,-1,-1,-1,-1,-1,-1,-1,-1,-1,-1,-1,-1,-1,-1,-1,-1,-1,-1,-1,-1,-1,-1,-1,-1,-1,-1,-1,-1,-1,-1,-1,-1,-1],"split_conditions":[-1.0236105E-1,-1.1152139E-1,-9.388252E-2,-2.4040714E-1,-1.0735085E-1,-9.817049E-2,1.0845159E-1,-7.700024E-1,-4.903295E-1,-2.5060982E-1,-1.0487847E-1,-1.00719094E-1,-9.62906E-2,-8.954605E-2,-2.1262083E0,4.839532E-1,-5.7539847E-2,-1.2779665E-1,-5.476856E-2,-2.2763875E-1,-5.024531E-2,-9.07967E-2,-2.1782684E-1,-4.3705845E-1,-3.0388087E-1,-4.643754E-1,-2.0308182E-1,-9.176203E-2,-4.7314756E-2,7.579223E0,3.9977555E0,-1.2779665E-1,-6.0247425E-2,-1.2779665E-1,-5.6515973E-2,-8.0758005E-1,-1.1284228E-1,-1.2779665E-1,-1.1517645E-1,-5.2666206E-2,-5.1710587E-2,-5.1901713E-2,-1.573855E-1,-4.916228E-2,-5.0412513E-2,-2.2962828E-1,-4.903295E-1,8.655837E-2,-2.1213461E-1,-4.6369398E-1,-2.1048252E-1,4.4191366E-1,-2.239743E-1,-1.573855E-1,5.546537E-3,-9.2755675E-2,7.83766E-3,2.2443135E0,-8.607156E-2,4.317382E0,1.0896969E-2,-9.191389E-3,4.317382E0,-1.8658765E-3,-7.448654E-3,-1.1696252E-2,-1.0516368E-2,-3.757E-4,-1.0361823E-2,-8.058841E-3,-4.707537E-3,6.534663E-3,1.7740125E-3,-8.588186E-3,-6.930941E-3,4.4581495E-4,-6.6432855E-3,1.3185815E-4,-4.3231538E-3,-5.037334E-3,-6.55264E-3,-4.1084727E-3,-5.3291204E-3,-3.461254E-3,-2.787293E-3,-4.987133E-3,-3.147993E-3,-2.6351034E-3,-4.1474197E-3,-2.5486888E-3,-1.5358157E-3,9.188967E-4,-1.4226626E-3,-1.3940708E-3,-3.6017867E-4,-1.64602E-4,-9.757018E-4,7.6470437E-4,-7.756787E-4,-7.810917E-4,9.0761855E-4,1.8748622E-3,2.6349495E-3,4.2426744E-3,3.4646138E-3,2.7204584E-3,3.3207368E-3,3.765753E-3,4.890143E-3,6.0812216E-3,6.8736197E-3,-2.3338315E-3,5.670757E-3,9.509587E-3,1.1301745E-2,4.9140095E-4,4.80133E-3,-3.1763874E-3,7.6932358E-3],"split_indices":[0,0,0,9,0,0,1,2,2,2,0,0,0,0,3,3,1,0,1,9,1,2,9,2,2,3,9,0,1,0,2,0,1,0,1,3,0,0,0,1,1,1,2,1,1,9,2,3,9,2,9,2,2,2,0,0,0,9,0,2,0,0,2,0,0,0,0,0,0,0,0,0,0,0,0,0,0,0,0,0,0,0,0,0,0,0,0,0,0,0,0,0,0,0,0,0,0,0,0,0,0,0,0,0,0,0,0,0,0,0,0,0,0,0,0,0,0,0,0],"split_type":[0,0,0,0,0,0,0,0,0,0,0,0,0,0,0,0,0,0,0,0,0,0,0,0,0,0,0,0,0,0,0,0,0,0,0,0,0,0,0,0,0,0,0,0,0,0,0,0,0,0,0,0,0,0,0,0,0,0,0,0,0,0,0,0,0,0,0,0,0,0,0,0,0,0,0,0,0,0,0,0,0,0,0,0,0,0,0,0,0,0,0,0,0,0,0,0,0,0,0,0,0,0,0,0,0,0,0,0,0,0,0,0,0,0,0,0,0,0,0],"sum_hessian":[8.458E3,4.194E3,4.264E3,2.166E3,2.028E3,1.937E3,2.327E3,1.012E3,1.154E3,1.071E3,9.57E2,9.05E2,1.032E3,2.255E3,7.2E1,8.27E2,1.85E2,9.59E2,1.95E2,6.92E2,3.79E2,4.56E2,5.01E2,3.02E2,6.03E2,4.94E2,5.38E2,9.7E2,1.285E3,2.7E1,4.5E1,4E0,8.23E2,6.1E1,1.24E2,6E0,9.53E2,7.5E1,1.2E2,2.86E2,4.06E2,3.21E2,5.8E1,2.05E2,2.51E2,2.13E2,2.88E2,3.8E1,2.64E2,4.8E1,5.55E2,2.06E2,2.88E2,2.79E2,2.59E2,4.94E2,4.76E2,2E1,1.265E3,7E0,2E1,1.7E1,2.8E1,3E0,1E0,1.68E2,6.55E2,1E0,6E1,1.16E2,8E0,2E0,4E0,6.93E2,2.6E2,2E0,7.3E1,3E0,1.17E2,7.7E1,2.09E2,1.59E2,2.47E2,1.34E2,1.87E2,4.4E1,1.4E1,1.36E2,6.9E1,3.5E1,2.16E2,8E0,2.05E2,3.3E1,2.55E2,1.4E1,2.4E1,2.44E2,2E1,7E0,4.1E1,2.4E2,3.15E2,8.1E1,1.25E2,7.1E1,2.17E2,3.3E1,2.46E2,2.68E2,2.26E2,1E1,1E1,6.91E2,5.74E2,4E0,3E0,2.7E1,1E0],"tree_param":{"num_deleted":"0","num_feature":"10","num_nodes":"119","size_leaf_vector":"1"}},{"base_weights":[-1.9978877E-4,-1.1701348E-1,1.16255544E-1,-1.6907254E-1,-6.1670613E-2,6.0103085E-2,1.6511759E-1,-1.929624E-1,-1.3872406E-1,-8.882502E-2,-3.0653618E-2,3.6449037E-2,8.920128E-2,1.7005974E-1,1.0003019E-2,-2.0164214E-1,-1.5812989E-1,-1.4978828E-1,-9.582046E-2,-1.02686696E-1,-6.46826E-2,-4.7297686E-2,-1.8688895E-2,1.582528E-2,4.945413E-2,7.5366445E-2,1.0261898E-1,1.3965917E-1,1.9604325E-1,-1.3105834E-1,1.4316908E-1,-2.048931E-1,-1.754626E-1,-9.199206E-3,-1.4076056E-1,2.022766E-3,-1.5084417E-1,-9.905417E-2,7.488404E-3,-1.12876326E-1,-8.899599E-2,-5.9908744E-2,-8.75865E-2,-6.1772514E-2,-3.2068435E-2,-2.731846E-2,-9.677567E-3,6.60417E-3,2.860375E-2,3.4918543E-2,5.3417306E-2,6.799859E-2,8.33699E-2,4.536394E-3,1.0638164E-1,1.2375673E-1,1.5190649E-1,3.9401397E-2,1.9870771E-1,-8.844538E-3,-8.783949E-2,2.1208346E-2,2.0834747E-1,-5.479397E-3,-1.0283149E-2,-1.0242793E-2,-8.267411E-3,-4.9235686E-3,-7.5390586E-3,-8.198411E-3,-6.772339E-3,-5.883407E-3,-4.2187744E-3,-7.907748E-4,7.0041517E-4,-4.0346393E-3,-5.8613024E-3,-3.6806122E-3,-4.9708146E-3,-7.6349336E-4,-3.0338208E-3,-4.824024E-3,-2.9007536E-3,-2.4614835E-3,-4.029928E-3,-2.7465553E-3,-1.3219062E-3,-1.9826784E-3,-1.0616528E-3,-1.0707289E-3,-2.502509E-4,-4.129499E-4,6.26446E-4,-4.1412917E-4,1.5668294E-3,1.0965619E-3,2.253485E-3,1.3646847E-3,2.856518E-3,3.4858321E-3,1.9133635E-3,4.207724E-3,1.7499764E-3,5.6432667E-3,4.6105697E-3,5.802263E-3,6.529552E-3,7.128312E-3,7.9545155E-3,-2.3078339E-3,5.370817E-3,9.224176E-3,1.0840988E-2,-5.110252E-3,-2.3279944E-3,-7.940556E-4,2.550529E-3,5.7725133E-3,1.105772E-2],"categories":[],"categories_nodes":[],"categories_segments":[],"categories_sizes":[],"default_left":[0,0,0,0,0,0,0,0,0,0,0,0,0,0,0,0,0,0,0,0,0,0,0,0,0,0,0,0,0,0,0,0,0,0,0,0,0,0,0,0,0,0,0,0,0,0,0,0,0,0,0,0,0,0,0,0,0,0,0,0,0,0,0,0,0,0,0,0,0,0,0,0,0,0,0,0,0,0,0,0,0,0,0,0,0,0,0,0,0,0,0,0,0,0,0,0,0,0,0,0,0,0,0,0,0,0,0,0,0,0,0,0,0,0,0,0,0,0,0],"id":8,"left_children":[1,3,5,7,9,11,13,15,17,19,21,23,25,27,29,31,33,35,37,39,41,43,45,47,49,51,53,55,57,59,61,63,65,-1,67,-1,69,71,73,75,77,79,81,83,85,87,89,91,93,95,97,99,101,-1,103,105,107,109,111,-1,113,115,117,-1,-1,-1,-1,-1,-1,-1,-1,-1,-1,-1,-1,-1,-1,-1,-1,-1,-1,-1,-1,-1,-1,-1,-1,-1,-1,-1,-1,-1,-1,-1,-1,-1,-1,-1,-1,-1,-1,-1,-1,-1,-1,-1,-1,-1,-1,-1,-1,-1,-1,-1,-1,-1,-1,-1,-1],"loss_changes":[1.1509987E2,1.2159336E1,1.1615234E1,1.550869E0,1.723043E0,1.3547454E0,1.734642E0,3.3545303E-1,4.423027E-1,3.588009E-1,1.8989384E-1,2.9157043E-1,1.5636396E-1,1.7064781E0,1.3524691E0,4.6520233E-2,8.502245E-2,1.5937233E-1,6.755614E-2,8.649063E-2,3.859818E-2,8.619541E-2,4.3205634E-2,4.9653888E-2,3.6616325E-2,2.0218134E-2,1.0303497E-2,1.788826E-1,4.850769E-1,5.3790867E-2,2.8970182E-1,4.0267944E-2,1.9073486E-5,0E0,4.956436E-2,0E0,1.3116837E-1,4.3078065E-2,1.2851218E-3,4.5557022E-2,4.0772438E-2,1.0553241E-2,1.2024164E-2,4.4203103E-2,2.3906335E-2,2.0551324E-2,1.4974304E-2,2.1854436E-2,1.810193E-2,1.825963E-2,4.9170732E-2,9.284854E-3,4.872322E-3,0E0,2.018714E-2,8.403778E-3,1.5498161E-2,1.2716177E-1,2.591095E-1,0E0,7.1014166E-3,1.6284987E-2,3.021121E-3,0E0,0E0,0E0,0E0,0E0,0E0,0E0,0E0,0E0,0E0,0E0,0E0,0E0,0E0,0E0,0E0,0E0,0E0,0E0,0E0,0E0,0E0,0E0,0E0,0E0,0E0,0E0,0E0,0E0,0E0,0E0,0E0,0E0,0E0,0E0,0E0,0E0,0E0,0E0,0E0,0E0,0E0,0E0,0E0,0E0,0E0,0E0,0E0,0E0,0E0,0E0,0E0,0E0,0E0,0E0,0E0],"parents":[2147483647,0,0,1,1,2,2,3,3,4,4,5,5,6,6,7,7,8,8,9,9,10,10,11,11,12,12,13,13,14,14,15,15,16,16,17,17,18,18,19,19,20,20,21,21,22,22,23,23,24,24,25,25,26,26,27,27,28,28,29,29,30,30,31,31,32,32,34,34,36,36,37,37,38,38,39,39,40,40,41,41,42,42,43,43,44,44,45,45,46,46,47,47,48,48,49,49,50,50,51,51,52,52,54,54,55,55,56,56,57,57,58,58,60,60,61,61,62,62],"right_children":[2,4,6,8,10,12,14,16,18,20,22,24,26,28,30,32,34,36,38,40,42,44,46,48,50,52,54,56,58,60,62,64,66,-1,68,-1,70,72,74,76,78,80,82,84,86,88,90,92,94,96,98,100,102,-1,104,106,108,110,112,-1,114,116,118,-1,-1,-1,-1,-1,-1,-1,-1,-1,-1,-1,-1,-1,-1,-1,-1,-1,-1,-1,-1,-1,-1,-1,-1,-1,-1,-1,-1,-1,-1,-1,-1,-1,-1,-1,-1,-1,-1,-1,-1,-1,-1,-1,-1,-1,-1,-1,-1,-1,-1,-1,-1,-1,-1,-1,-1],"split_conditions":[-1.0236105E-1,-1.1152139E-1,-9.360995E-2,-2.3813249E-1,-1.0735085E-1,-9.737819E-2,1.0845159E-1,-7.5668466E-1,-5.0364727E-1,-2.6392758E-1,-1.05176836E-1,-1.0007386E-1,-9.56908E-2,-8.9024395E-2,3.4086914E0,-8.801345E-2,-5.73105E-2,-1.2779665E-1,-1.1743222E-1,-2.268349E-1,-5.024531E-2,-7.7478945E-2,-2.1782684E-1,-1.0100167E-1,-7.705208E-2,-9.650928E-2,-6.564841E-2,-9.176203E-2,-4.7314756E-2,3.9977555E0,7.579223E0,-3.2604234E0,-2.434824E-1,-9.199206E-3,-1.1901898E-1,2.022766E-3,-1.13475196E-1,-5.4659348E-2,5.5698648E-2,-5.476856E-2,-5.1901713E-2,-2.4040714E-1,-1.573855E-1,-4.949902E-2,-9.033281E-2,-8.670642E-2,-8.500105E-2,-8.2922995E-2,-3.971052E-1,-9.869176E-2,-2.6392758E-1,-2.0541006E-1,-2.0420478E-1,4.536394E-3,-5.5838086E-2,-9.2755675E-2,-1.9607507E-1,2.2443135E0,-8.567195E-2,-8.844538E-3,5.589835E0,2.2648559E0,2.3674629E0,-5.479397E-3,-1.0283149E-2,-1.0242793E-2,-8.267411E-3,-4.9235686E-3,-7.5390586E-3,-8.198411E-3,-6.772339E-3,-5.883407E-3,-4.2187744E-3,-7.907748E-4,7.0041517E-4,-4.0346393E-3,-5.8613024E-3,-3.6806122E-3,-4.9708146E-3,-7.6349336E-4,-3.0338208E-3,-4.824024E-3,-2.9007536E-3,-2.4614835E-3,-4.029928E-3,-2.7465553E-3,-1.3219062E-3,-1.9826784E-3,-1.0616528E-3,-1.0707289E-3,-2.502509E-4,-4.129499E-4,6.26446E-4,-4.1412917E-4,1.5668294E-3,1.0965619E-3,2.253485E-3,1.3646847E-3,2.856518E-3,3.4858321E-3,1.9133635E-3,4.207724E-3,1.7499764E-3,5.6432667E-3,4.6105697E-3,5.802263E-3,6.529552E-3,7.128312E-3,7.9545155E-3,-2.3078339E-3,5.370817E-3,9.224176E-3,1.0840988E-2,-5.110252E-3,-2.3279944E-3,-7.940556E-4,2.550529E-3,5.7725133E-3,1.105772E-2],"split_indices":[0,0,0,9,0,0,1,2,2,2,0,0,0,0,6,6,1,0,2,9,1,2,9,0,6,0,6,0,1,2,0,2,4,0,0,0,0,1,2,1,1,9,2,1,6,6,6,6,2,0,2,9,9,0,6,0,9,9,0,0,4,9,9,0,0,0,0,0,0,0,0,0,0,0,0,0,0,0,0,0,0,0,0,0,0,0,0,0,0,0,0,0,0,0,0,0,0,0,0,0,0,0,0,0,0,0,0,0,0,0,0,0,0,0,0,0,0,0,0],"split_type":[0,0,0,0,0,0,0,0,0,0,0,0,0,0,0,0,0,0,0,0,0,0,0,0,0,0,0,0,0,0,0,0,0,0,0,0,0,0,0,0,0,0,0,0,0,0,0,0,0,0,0,0,0,0,0,0,0,0,0,0,0,0,0,0,0,0,0,0,0,0,0,0,0,0,0,0,0,0,0,0,0,0,0,0,0,0,0,0,0,0,0,0,0,0,0,0,0,0,0,0,0,0,0,0,0,0,0,0,0,0,0,0,0,0,0,0,0,0,0],"sum_hessian":[8.459E3,4.223E3,4.236E3,2.175E3,2.048E3,1.972E3,2.264E3,1.214E3,9.61E2,1.091E3,9.57E2,1.089E3,8.83E2,2.194E3,7E1,9.68E2,2.46E2,7.62E2,1.99E2,6.91E2,4E2,3.99E2,5.58E2,4.22E2,6.67E2,4.38E2,4.45E2,1.014E3,1.18E3,3.4E1,3.6E1,8.55E2,1.13E2,9.5E1,1.51E2,4E0,7.58E2,1.93E2,6E0,3.92E2,2.99E2,3.34E2,6.6E1,2.03E2,1.96E2,2.84E2,2.74E2,2.46E2,1.76E2,1.45E2,5.22E2,2.33E2,2.05E2,1.13E2,3.32E2,4.46E2,5.68E2,2E1,1.16E3,1.5E1,1.9E1,1.3E1,2.3E1,8E0,8.47E2,2.4E1,8.9E1,3.1E1,1.2E2,4.04E2,3.54E2,8.2E1,1.11E2,1E0,5E0,4.9E1,3.43E2,1.24E2,1.75E2,6E0,3.28E2,4.9E1,1.7E1,1.24E2,7.9E1,3.7E1,1.59E2,9.2E1,1.92E2,7.7E1,1.97E2,7E1,1.76E2,1.2E1,1.64E2,6.5E1,8E1,6.6E1,4.56E2,2.19E2,1.4E1,2.01E2,4E0,2.23E2,1.09E2,2.18E2,2.28E2,2.56E2,3.12E2,9E0,1.1E1,6.56E2,5.04E2,1.3E1,6E0,6E0,7E0,4E0,1.9E1],"tree_param":{"num_deleted":"0","num_feature":"10","num_nodes":"119","size_leaf_vector":"1"}},{"base_weights":[3.3850875E-4,-1.12228476E-1,1.0880825E-1,-1.6254316E-1,-6.085015E-2,5.4910626E-2,1.5705582E-1,-1.8435037E-1,-1.328575E-1,-8.837425E-2,-3.3481203E-2,2.8035203E-2,7.9183295E-2,1.6243905E-1,4.6081476E-2,-1.9147451E-1,-1.5412217E-1,-1.435767E-1,-9.251056E-2,-1.0188391E-1,-6.4095825E-2,-5.506281E-2,-2.35012E-2,5.953576E-3,3.8459163E-2,6.276348E-2,9.357395E-2,1.3510194E-1,1.9169839E-1,-1.1174818E-1,1.323343E-1,-9.557819E-2,-1.9227566E-1,-1.5510924E-1,-2.641491E-2,3.6968708E-3,-1.4493495E-1,-9.5815316E-2,7.101076E-3,-1.1935027E-1,-9.3334734E-2,-7.876087E-2,-5.7917997E-2,-6.780276E-2,-4.282927E-2,-3.0178186E-2,-1.272145E-2,-1.5871167E-2,9.339024E-3,1.10879E-2,4.0805038E-2,5.2179076E-2,6.763638E-2,8.55135E-2,1.0124815E-1,1.19626515E-1,1.4860104E-1,1.9228289E-1,-7.424278E-2,-6.510338E-2,-8.276931E-3,3.6901563E-2,1.7924847E-1,-8.3179475E-4,-7.271688E-3,-1.073317E-2,-9.392693E-3,-7.976961E-3,-5.7782717E-3,-1.3632774E-4,-1.8447906E-3,-8.073367E-3,-6.727931E-3,-5.3886827E-3,-3.7485757E-3,-7.7100546E-4,6.7123125E-4,-7.0030144E-3,-5.369002E-3,-5.1007685E-3,-3.7300964E-3,-4.9819383E-3,-2.71459E-3,-2.9791058E-3,-1.901755E-3,-4.0210765E-3,-2.459282E-3,-3.0547834E-3,-1.6449409E-3,-2.075614E-3,-1.2203539E-3,-1.7489216E-3,-4.9548765E-4,-1.0322065E-3,-1.8178913E-4,-2.023801E-4,9.3128346E-4,-4.3450468E-4,8.8665E-4,1.1631375E-3,2.3134863E-3,3.0921323E-3,2.3387338E-3,3.8085256E-3,2.7088064E-3,3.2399779E-3,4.3815854E-3,4.5274193E-3,5.2571683E-3,5.3932825E-3,6.203729E-3,6.9709094E-3,7.748918E-3,8.983708E-3,1.0497274E-2,-5.2121617E-3,-3.5604686E-4,-4.164956E-3,-1.1424217E-3,-3.1535083E-3,3.002471E-3,6.916E-3,9.923569E-3],"categories":[],"categories_nodes":[],"categories_segments":[],"categories_sizes":[],"default_left":[0,0,0,0,0,0,0,0,0,0,0,0,0,0,0,0,0,0,0,0,0,0,0,0,0,0,0,0,0,0,0,0,0,0,0,0,0,0,0,0,0,0,0,0,0,0,0,0,0,0,0,0,0,0,0,0,0,0,0,0,0,0,0,0,0,0,0,0,0,0,0,0,0,0,0,0,0,0,0,0,0,0,0,0,0,0,0,0,0,0,0,0,0,0,0,0,0,0,0,0,0,0,0,0,0,0,0,0,0,0,0,0,0,0,0,0,0,0,0,0,0,0,0],"id":9,"left_children":[1,3,5,7,9,11,13,15,17,19,21,23,25,27,29,31,33,35,37,39,41,43,45,47,49,51,53,55,57,59,61,63,65,67,69,-1,71,73,75,77,79,81,83,85,87,89,91,93,95,97,99,101,103,105,107,109,111,113,115,117,-1,119,121,-1,-1,-1,-1,-1,-1,-1,-1,-1,-1,-1,-1,-1,-1,-1,-1,-1,-1,-1,-1,-1,-1,-1,-1,-1,-1,-1,-1,-1,-1,-1,-1,-1,-1,-1,-1,-1,-1,-1,-1,-1,-1,-1,-1,-1,-1,-1,-1,-1,-1,-1,-1,-1,-1,-1,-1,-1,-1,-1,-1],"loss_changes":[1.0276031E2,1.0666512E1,1.1136818E1,1.3259048E0,1.5375509E0,1.3194175E0,1.343235E0,2.2890854E-1,3.7033272E-1,3.2769537E-1,2.1990585E-1,2.2143245E-1,2.4554157E-1,1.6986122E0,1.4577931E0,5.5912018E-2,2.5399685E-2,2.1722889E-1,6.289792E-2,8.6368084E-2,2.8687835E-2,4.7592998E-2,5.0287366E-2,2.3053046E-2,4.1540563E-2,2.2259235E-2,2.629137E-2,2.1577835E-1,1.7577744E-1,8.456653E-2,3.023088E-1,3.69377E-2,5.4512024E-2,2.2203922E-2,6.4422726E-4,0E0,9.749794E-2,3.7534E-2,1.2039059E-3,3.726816E-2,6.44269E-2,4.8741877E-2,6.4027905E-3,3.2927632E-2,2.8464168E-2,2.7374864E-2,1.6612526E-2,2.377701E-3,3.351662E-2,7.1197175E-3,5.6633234E-2,5.5678785E-3,3.4814715E-2,6.6945553E-3,2.315998E-3,1.4133453E-2,1.3121605E-2,1.9322205E-1,5.2987486E-3,1.5011668E-2,0E0,5.9326466E-2,8.738518E-3,0E0,0E0,0E0,0E0,0E0,0E0,0E0,0E0,0E0,0E0,0E0,0E0,0E0,0E0,0E0,0E0,0E0,0E0,0E0,0E0,0E0,0E0,0E0,0E0,0E0,0E0,0E0,0E0,0E0,0E0,0E0,0E0,0E0,0E0,0E0,0E0,0E0,0E0,0E0,0E0,0E0,0E0,0E0,0E0,0E0,0E0,0E0,0E0,0E0,0E0,0E0,0E0,0E0,0E0,0E0,0E0,0E0,0E0,0E0,0E0],"parents":[2147483647,0,0,1,1,2,2,3,3,4,4,5,5,6,6,7,7,8,8,9,9,10,10,11,11,12,12,13,13,14,14,15,15,16,16,17,17,18,18,19,19,20,20,21,21,22,22,23,23,24,24,25,25,26,26,27,27,28,28,29,29,30,30,31,31,32,32,33,33,34,34,36,36,37,37,38,38,39,39,40,40,41,41,42,42,43,43,44,44,45,45,46,46,47,47,48,48,49,49,50,50,51,51,52,52,53,53,54,54,55,55,56,56,57,57,58,58,59,59,61,61,62,62],"right_children":[2,4,6,8,10,12,14,16,18,20,22,24,26,28,30,32,34,36,38,40,42,44,46,48,50,52,54,56,58,60,62,64,66,68,70,-1,72,74,76,78,80,82,84,86,88,90,92,94,96,98,100,102,104,106,108,110,112,114,116,118,-1,120,122,-1,-1,-1,-1,-1,-1,-1,-1,-1,-1,-1,-1,-1,-1,-1,-1,-1,-1,-1,-1,-1,-1,-1,-1,-1,-1,-1,-1,-1,-1,-1,-1,-1,-1,-1,-1,-1,-1,-1,-1,-1,-1,-1,-1,-1,-1,-1,-1,-1,-1,-1,-1,-1,-1,-1,-1,-1,-1,-1,-1],"split_conditions":[-1.0275952E-1,-1.1181244E-1,-9.3660384E-2,-2.3813249E-1,-1.0785402E-1,-9.817049E-2,2.3258464E0,-7.5668466E-1,-5.0364727E-1,-2.905631E-1,-1.0645537E-1,-1.0100167E-1,-9.62906E-2,-8.857627E-2,4.2108397E0,-3.2604234E0,-1.4644042E-1,-1.2779665E-1,-1.4406775E-1,-1.1052274E-1,9.559007E-2,-1.4406775E-1,-2.1809767E-1,-4.3705845E-1,-3.0388087E-1,-7.116861E-2,-2.0308182E-1,-9.142863E-2,3.536668E0,-1.7920355E0,4.317382E0,4.839532E-1,-1.2500781E-1,8.7231636E-1,-1.2779665E-1,3.6968708E-3,-9.191308E-2,-1.1381937E-1,5.5698648E-2,-8.957435E-2,3.575094E-1,-2.1065654E-1,3.484777E-1,2.4912898E-1,-9.1621004E-2,-5.0843425E-2,-5.5691826E-1,-2.9091042E-1,-8.123071E-2,-4.1042292E-1,-7.7373475E-2,-5.095339E-1,-6.160326E-2,-1.7070326E-1,-6.4072326E-2,-6.160326E-2,-1.9542508E-1,-8.5272714E-2,1.11712314E-1,2.2278924E0,-8.276931E-3,4.2773438E0,3.6999636E0,-8.3179475E-4,-7.271688E-3,-1.073317E-2,-9.392693E-3,-7.976961E-3,-5.7782717E-3,-1.3632774E-4,-1.8447906E-3,-8.073367E-3,-6.727931E-3,-5.3886827E-3,-3.7485757E-3,-7.7100546E-4,6.7123125E-4,-7.0030144E-3,-5.369002E-3,-5.1007685E-3,-3.7300964E-3,-4.9819383E-3,-2.71459E-3,-2.9791058E-3,-1.901755E-3,-4.0210765E-3,-2.459282E-3,-3.0547834E-3,-1.6449409E-3,-2.075614E-3,-1.2203539E-3,-1.7489216E-3,-4.9548765E-4,-1.0322065E-3,-1.8178913E-4,-2.023801E-4,9.3128346E-4,-4.3450468E-4,8.8665E-4,1.1631375E-3,2.3134863E-3,3.0921323E-3,2.3387338E-3,3.8085256E-3,2.7088064E-3,3.2399779E-3,4.3815854E-3,4.5274193E-3,5.2571683E-3,5.3932825E-3,6.203729E-3,6.9709094E-3,7.748918E-3,8.983708E-3,1.0497274E-2,-5.2121617E-3,-3.5604686E-4,-4.164956E-3,-1.1424217E-3,-3.1535083E-3,3.002471E-3,6.916E-3,9.923569E-3],"split_indices":[0,0,0,9,0,0,0,2,2,2,0,0,0,0,2,2,5,0,2,0,3,2,9,2,2,6,9,0,3,3,2,3,0,3,0,0,6,0,2,6,3,2,3,3,6,2,2,7,6,2,6,3,6,2,6,6,9,0,0,9,0,5,7,0,0,0,0,0,0,0,0,0,0,0,0,0,0,0,0,0,0,0,0,0,0,0,0,0,0,0,0,0,0,0,0,0,0,0,0,0,0,0,0,0,0,0,0,0,0,0,0,0,0,0,0,0,0,0,0,0,0,0,0],"split_type":[0,0,0,0,0,0,0,0,0,0,0,0,0,0,0,0,0,0,0,0,0,0,0,0,0,0,0,0,0,0,0,0,0,0,0,0,0,0,0,0,0,0,0,0,0,0,0,0,0,0,0,0,0,0,0,0,0,0,0,0,0,0,0,0,0,0,0,0,0,0,0,0,0,0,0,0,0,0,0,0,0,0,0,0,0,0,0,0,0,0,0,0,0,0,0,0,0,0,0,0,0,0,0,0,0,0,0,0,0,0,0,0,0,0,0,0,0,0,0,0,0,0,0],"sum_hessian":[8.414E3,4.129E3,4.285E3,2.085E3,2.044E3,2.025E3,2.26E3,1.199E3,8.86E2,1.018E3,1.026E3,9.62E2,1.063E3,2.155E3,1.05E2,9.66E2,2.33E2,6.98E2,1.88E2,6.52E2,3.66E2,3.23E2,7.03E2,3.09E2,6.53E2,4.99E2,5.64E2,1.117E3,1.038E3,3.7E1,6.8E1,9E0,9.57E2,2.31E2,2E0,4E0,6.94E2,1.82E2,6E0,2.1E2,4.42E2,1.05E2,2.61E2,1.56E2,1.67E2,4.33E2,2.7E2,4.1E1,2.68E2,5.2E1,6.01E2,1.61E2,3.38E2,2.81E2,2.83E2,5.25E2,5.92E2,1.036E3,2E0,2.1E1,1.6E1,2.3E1,4.5E1,4E0,5E0,1.5E2,8.07E2,2.05E2,2.6E1,1E0,1E0,2.62E2,4.32E2,1.13E2,6.9E1,1E0,5E0,7.3E1,1.37E2,2.99E2,1.43E2,5.5E1,5E1,2.39E2,2.2E1,9.1E1,6.5E1,5.7E1,1.1E2,1.44E2,2.89E2,2.9E1,2.41E2,2.9E1,1.2E1,1.1E2,1.58E2,1.3E1,3.9E1,1.44E2,4.57E2,5.4E1,1.07E2,2.04E2,1.34E2,2.9E1,2.52E2,8.2E1,2.01E2,1.51E2,3.74E2,2.52E2,3.4E2,6.11E2,4.25E2,1E0,1E0,1.4E1,7E0,4E0,1.9E1,1.7E1,2.8E1],"tree_param":{"num_deleted":"0","num_feature":"10","num_nodes":"123","size_leaf_vector":"1"}},{"base_weights":[-3.1258364E-4,-1.0626549E-1,1.03195526E-1,-1.5473463E-1,-6.308928E-2,4.8188455E-2,1.475786E-1,-1.7060278E-1,-1.2196473E-1,-8.273307E-2,-2.5863998E-2,2.1329751E-2,6.79079E-2,1.1951301E-1,1.6774349E-1,-1.7626308E-1,-1.3639979E-1,-1.3434932E-1,-8.950005E-2,-9.245146E-2,-4.559223E-2,-3.001835E-2,9.8823905E-3,6.1429786E-3,3.1285387E-2,5.4165527E-2,8.221794E-2,1.0768079E-1,1.3237928E-1,1.7456292E-1,1.3832735E-2,8.176188E-3,-1.7709452E-1,-1.4773688E-1,-7.970396E-2,-4.541687E-3,-1.3716097E-1,-9.404477E-2,-1.8036881E-2,-8.782307E-2,-1.3910311E-1,-6.202526E-2,-2.759813E-2,-4.821297E-2,-2.0262979E-2,-4.6584397E-3,6.7463657E-3,3.4091525E-2,-2.668569E-2,4.3273117E-2,5.7788353E-2,-4.2072E-3,8.370753E-2,1.7773783E-3,1.08313315E-1,1.5964866E-2,6.6674226E-3,1.641773E-1,1.9753505E-1,-6.130389E-2,8.762081E-3,1.35272E-3,-9.860079E-4,-9.977131E-3,-8.599603E-3,-8.604887E-3,-6.6142366E-3,-4.185603E-3,-5.1914755E-4,-6.899939E-3,-1.9006407E-3,-5.4093893E-3,-3.956856E-3,-1.1260146E-3,7.820159E-4,-4.6709627E-3,-3.1177364E-3,-8.451658E-3,-5.194549E-3,-2.5843065E-3,-4.1773864E-3,-1.1773717E-3,-5.2045393E-3,-1.9340822E-3,-2.942125E-3,-1.3430499E-3,-4.5110114E-4,-6.142323E-4,4.1681473E-4,1.4321092E-3,2.1989353E-3,-1.8432587E-3,1.5441574E-3,2.3330213E-3,1.4979703E-3,-1.7497868E-3,2.904739E-3,-3.5273965E-4,5.3552835E-4,3.768342E-3,4.5259995E-3,5.437973E-3,1.2120173E-3,-3.879264E-4,1.1917673E-3,8.298638E-3,2.6965882E-3,9.992236E-3,5.6524957E-3,-5.4410864E-3,1.9055319E-3],"categories":[],"categories_nodes":[],"categories_segments":[],"categories_sizes":[],"default_left":[0,0,0,0,0,0,0,0,0,0,0,0,0,0,0,0,0,0,0,0,0,0,0,0,0,0,0,0,0,0,0,0,0,0,0,0,0,0,0,0,0,0,0,0,0,0,0,0,0,0,0,0,0,0,0,0,0,0,0,0,0,0,0,0,0,0,0,0,0,0,0,0,0,0,0,0,0,0,0,0,0,0,0,0,0,0,0,0,0,0,0,0,0,0,0,0,0,0,0,0,0,0,0,0,0,0,0,0,0,0,0],"id":10,"left_children":[1,3,5,7,9,11,13,15,17,19,21,23,25,27,29,31,33,35,37,39,41,43,-1,45,47,49,51,53,55,57,59,61,63,65,67,-1,69,71,73,75,77,79,81,83,85,-1,87,89,91,93,95,97,99,-1,101,103,-1,105,107,109,-1,-1,-1,-1,-1,-1,-1,-1,-1,-1,-1,-1,-1,-1,-1,-1,-1,-1,-1,-1,-1,-1,-1,-1,-1,-1,-1,-1,-1,-1,-1,-1,-1,-1,-1,-1,-1,-1,-1,-1,-1,-1,-1,-1,-1,-1,-1,-1,-1,-1,-1],"loss_changes":[9.20788E1,8.672909E0,1.0361439E1,9.952698E-1,1.6036749E0,1.0038056E0,1.3099098E0,2.3034668E-1,2.4569798E-1,5.1446915E-1,7.1162874E-1,1.2151891E-1,2.1068573E-1,1.3584995E-1,1.4302635E0,1.7380905E-1,1.1099291E-1,4.4067383E-2,5.6764245E-2,2.3350143E-1,8.699751E-2,1.3161206E-1,0E0,1.9804062E-2,7.996979E-2,1.9637108E-2,6.9098234E-2,1.982975E-2,5.0673485E-2,2.7939606E-1,7.262784E-1,3.6933157E-3,9.3853E-2,3.6709785E-2,8.577555E-3,0E0,3.0638695E-2,2.7070045E-2,2.164089E-3,1.4211655E-1,8.888304E-2,3.0395389E-2,4.2476952E-2,2.4065375E-2,3.595166E-2,0E0,9.754695E-3,2.3739994E-2,1.4617E-2,5.0961673E-3,1.3917565E-2,5.0035806E-4,2.3008585E-2,0E0,1.6643047E-2,1.1184997E-3,0E0,1.7038155E-1,5.5850983E-2,1.9782974E-1,0E0,0E0,0E0,0E0,0E0,0E0,0E0,0E0,0E0,0E0,0E0,0E0,0E0,0E0,0E0,0E0,0E0,0E0,0E0,0E0,0E0,0E0,0E0,0E0,0E0,0E0,0E0,0E0,0E0,0E0,0E0,0E0,0E0,0E0,0E0,0E0,0E0,0E0,0E0,0E0,0E0,0E0,0E0,0E0,0E0,0E0,0E0,0E0,0E0,0E0,0E0],"parents":[2147483647,0,0,1,1,2,2,3,3,4,4,5,5,6,6,7,7,8,8,9,9,10,10,11,11,12,12,13,13,14,14,15,15,16,16,17,17,18,18,19,19,20,20,21,21,23,23,24,24,25,25,26,26,27,27,28,28,29,29,30,30,31,31,32,32,33,33,34,34,36,36,37,37,38,38,39,39,40,40,41,41,42,42,43,43,44,44,46,46,47,47,48,48,49,49,50,50,51,51,52,52,54,54,55,55,57,57,58,58,59,59],"right_children":[2,4,6,8,10,12,14,16,18,20,22,24,26,28,30,32,34,36,38,40,42,44,-1,46,48,50,52,54,56,58,60,62,64,66,68,-1,70,72,74,76,78,80,82,84,86,-1,88,90,92,94,96,98,100,-1,102,104,-1,106,108,110,-1,-1,-1,-1,-1,-1,-1,-1,-1,-1,-1,-1,-1,-1,-1,-1,-1,-1,-1,-1,-1,-1,-1,-1,-1,-1,-1,-1,-1,-1,-1,-1,-1,-1,-1,-1,-1,-1,-1,-1,-1,-1,-1,-1,-1,-1,-1,-1,-1,-1,-1],"split_conditions":[-8.606458E-2,-2.3138417E-1,-1.46727525E-2,-1.4644475E-1,-1.3074999E-1,-5.345687E-2,-3.581272E-3,-7.0341367E-1,-5.1696503E-1,-1.2622423E-1,-4.470274E-2,-6.608405E-2,-4.2912755E-2,3.5253286E-3,1.0845159E-1,3.575094E-1,-5.6106422E-2,2.942875E-1,-5.354537E-2,-2.1162155E-1,-1.10727146E-1,-4.999048E-2,9.8823905E-3,-5.699651E-2,-2.0681915E-1,-2.0861425E-1,-4.635914E-2,-4.381083E-2,-4.1925084E-2,-2.7858034E-2,4.317382E0,-2.2051947E-1,-5.9992593E-2,-5.7195824E-2,-5.5055246E-2,-4.541687E-3,-1.263428E-1,-5.476856E-2,-4.967194E-2,-2.5060982E-1,-5.4659348E-2,-1.16610184E-1,-7.5008675E-2,1.1365347E-1,-2.1834281E-1,-4.6584397E-3,-4.503762E-1,-2.1048252E-1,2.2648559E0,-3.288999E-1,-5.107351E-2,-4.8917145E-2,-2.6881916E-2,1.7773783E-3,-1.2963509E-2,-4.967194E-2,6.6674226E-3,1.3741568E0,5.589835E0,3.2071147E0,8.762081E-3,1.35272E-3,-9.860079E-4,-9.977131E-3,-8.599603E-3,-8.604887E-3,-6.6142366E-3,-4.185603E-3,-5.1914755E-4,-6.899939E-3,-1.9006407E-3,-5.4093893E-3,-3.956856E-3,-1.1260146E-3,7.820159E-4,-4.6709627E-3,-3.1177364E-3,-8.451658E-3,-5.194549E-3,-2.5843065E-3,-4.1773864E-3,-1.1773717E-3,-5.2045393E-3,-1.9340822E-3,-2.942125E-3,-1.3430499E-3,-4.5110114E-4,-6.142323E-4,4.1681473E-4,1.4321092E-3,2.1989353E-3,-1.8432587E-3,1.5441574E-3,2.3330213E-3,1.4979703E-3,-1.7497868E-3,2.904739E-3,-3.5273965E-4,5.3552835E-4,3.768342E-3,4.5259995E-3,5.437973E-3,1.2120173E-3,-3.879264E-4,1.1917673E-3,8.298638E-3,2.6965882E-3,9.992236E-3,5.6524957E-3,-5.4410864E-3,1.9055319E-3],"split_indices":[4,9,4,5,2,4,5,2,2,4,1,5,5,4,1,3,1,3,1,9,4,1,0,1,9,9,1,1,1,1,2,3,1,1,1,0,5,1,1,2,1,7,5,3,9,0,2,9,9,3,1,3,4,0,5,1,0,2,4,7,0,0,0,0,0,0,0,0,0,0,0,0,0,0,0,0,0,0,0,0,0,0,0,0,0,0,0,0,0,0,0,0,0,0,0,0,0,0,0,0,0,0,0,0,0,0,0,0,0,0,0],"split_type":[0,0,0,0,0,0,0,0,0,0,0,0,0,0,0,0,0,0,0,0,0,0,0,0,0,0,0,0,0,0,0,0,0,0,0,0,0,0,0,0,0,0,0,0,0,0,0,0,0,0,0,0,0,0,0,0,0,0,0,0,0,0,0,0,0,0,0,0,0,0,0,0,0,0,0,0,0,0,0,0,0,0,0,0,0,0,0,0,0,0,0,0,0,0,0,0,0,0,0,0,0,0,0,0,0,0,0,0,0,0,0],"sum_hessian":[8.394E3,4.148E3,4.246E3,1.953E3,2.195E3,1.897E3,2.349E3,1.313E3,6.4E2,1.436E3,7.59E2,8.04E2,1.093E3,9.85E2,1.364E3,1.123E3,1.9E2,4.61E2,1.79E2,1.137E3,2.99E2,7.46E2,1.3E1,3.19E2,4.85E2,5.6E2,5.33E2,5.18E2,4.67E2,1.306E3,5.8E1,5E0,1.118E3,1.57E2,3.3E1,3E1,4.31E2,1.68E2,1.1E1,1.037E3,1E2,1.55E2,1.44E2,2.59E2,4.87E2,1E0,3.18E2,4.63E2,2.2E1,1.43E2,4.17E2,9E0,5.24E2,5E0,5.13E2,4E0,4.63E2,9.05E2,4.01E2,4E1,1.8E1,3E0,2E0,2E2,9.18E2,5.7E1,1E2,3.1E1,2E0,4.27E2,4E0,8.3E1,8.5E1,1E1,1E0,8.48E2,1.89E2,5.2E1,4.8E1,1.07E2,4.8E1,1.38E2,6E0,1.39E2,1.2E2,3.06E2,1.81E2,2.4E1,2.94E2,3.01E2,1.62E2,1.9E1,3E0,1.12E2,3.1E1,1E0,4.16E2,8E0,1E0,2.41E2,2.83E2,5.1E2,3E0,1E0,3E0,8.9E2,1.5E1,3.89E2,1.2E1,2.7E1,1.3E1],"tree_param":{"num_deleted":"0","num_feature":"10","num_nodes":"111","size_leaf_vector":"1"}},{"base_weights":[-2.8081078E-4,-1.01869985E-1,9.8422915E-2,-1.4533113E-1,-5.703735E-2,4.6951964E-2,1.3980214E-1,-1.6932991E-1,-1.23296455E-1,-8.16347E-2,-3.1648993E-2,2.4997653E-2,6.869597E-2,1.4373888E-1,2.8675238E-3,-1.9149719E-1,-1.6447878E-1,4.850882E-2,-1.2523773E-1,-9.3088284E-2,-6.819756E-2,-4.53827E-2,-1.8069569E-2,4.8002633E-3,3.491385E-2,5.5170447E-2,8.123167E-2,1.19581915E-1,1.712352E-1,-6.600732E-2,9.0170605E-3,-9.626879E-3,-2.876982E-4,-1.6479684E-1,-2.1866888E-2,2.3063762E-2,6.2818876E-3,-1.4344887E-1,-1.15166664E-1,-8.08585E-2,-1.0363443E-1,-2.820553E-3,-7.402462E-2,-4.0724993E-2,-6.857221E-2,-2.96436E-2,-1.3261163E-2,-7.08072E-3,9.627031E-3,2.1440174E-2,3.857741E-2,4.626393E-2,5.960343E-2,7.302258E-2,8.6966634E-2,1.05688825E-1,1.3465004E-1,6.443494E-2,1.7299965E-1,-9.996099E-2,2.6016917E-2,-8.325561E-3,-6.4813565E-3,2.3141504E-6,-1.6423308E-3,1.8628741E-3,2.513041E-4,-7.4633704E-3,-5.6889183E-3,-6.012734E-3,-4.428416E-3,-1.3256768E-3,-4.202573E-3,-5.975991E-3,-4.3524406E-3,-4.2220457E-3,-3.0088946E-3,-2.7315456E-3,-1.7129161E-3,6.525904E-4,-3.5387978E-3,4.142341E-4,-1.5935054E-3,-1.3520996E-3,-3.928418E-4,8.075855E-4,-4.4553383E-4,1.005269E-3,-1.0641827E-4,8.6533633E-4,1.7574478E-3,1.2101623E-3,2.15885E-3,2.1620728E-3,2.5717986E-3,3.44905E-3,2.3560876E-3,1.937905E-3,3.7009045E-3,3.7283543E-3,4.4738944E-3,4.9109515E-3,5.6912485E-3,5.8599217E-3,6.8755E-3,3.873768E-5,7.5935423E-3,8.055334E-3,9.390346E-3,7.2367103E-3,-5.554377E-3,-5.7752634E-4,3.9015964E-3],"categories":[],"categories_nodes":[],"categories_segments":[],"categories_sizes":[],"default_left":[0,0,0,0,0,0,0,0,0,0,0,0,0,0,0,0,0,0,0,0,0,0,0,0,0,0,0,0,0,0,0,0,0,0,0,0,0,0,0,0,0,0,0,0,0,0,0,0,0,0,0,0,0,0,0,0,0,0,0,0,0,0,0,0,0,0,0,0,0,0,0,0,0,0,0,0,0,0,0,0,0,0,0,0,0,0,0,0,0,0,0,0,0,0,0,0,0,0,0,0,0,0,0,0,0,0,0,0,0,0,0,0,0],"id":11,"left_children":[1,3,5,7,9,11,13,15,17,19,21,23,25,27,29,31,33,35,37,39,41,43,45,47,49,51,53,55,57,59,-1,-1,-1,61,63,65,-1,67,69,71,73,-1,75,77,79,81,83,85,87,89,91,93,95,97,99,101,103,105,107,109,111,-1,-1,-1,-1,-1,-1,-1,-1,-1,-1,-1,-1,-1,-1,-1,-1,-1,-1,-1,-1,-1,-1,-1,-1,-1,-1,-1,-1,-1,-1,-1,-1,-1,-1,-1,-1,-1,-1,-1,-1,-1,-1,-1,-1,-1,-1,-1,-1,-1,-1,-1,-1],"loss_changes":[8.42187E1,8.056461E0,9.066509E0,1.0901413E0,1.2707443E0,9.052954E-1,1.2723427E0,7.636261E-2,3.726139E-1,1.529417E-1,1.866082E-1,1.8949884E-1,1.5727043E-1,1.5039253E0,8.308764E-1,3.251648E-2,3.4044266E-2,2.2615472E-2,1.8284225E-1,6.3331604E-2,2.8790712E-2,5.1104426E-2,2.7822793E-2,1.8017698E-2,3.0517519E-2,1.5483499E-2,1.6859293E-2,2.422123E-1,1.9067955E-1,1.5570413E-1,0E0,0E0,0E0,2.8339386E-2,7.2332204E-4,2.6289802E-3,0E0,4.913664E-2,8.4757805E-2,4.323411E-2,6.731939E-2,0E0,4.078412E-2,3.571701E-2,1.5673816E-2,1.2762278E-2,2.6598923E-2,4.0127267E-3,2.7511291E-2,7.211402E-3,3.188032E-2,2.4574995E-4,3.2449126E-2,4.2603016E-3,2.2022724E-3,2.7837753E-2,1.30319595E-2,1.05639875E-1,1.5517426E-1,1.1409229E-1,2.8258301E-2,0E0,0E0,0E0,0E0,0E0,0E0,0E0,0E0,0E0,0E0,0E0,0E0,0E0,0E0,0E0,0E0,0E0,0E0,0E0,0E0,0E0,0E0,0E0,0E0,0E0,0E0,0E0,0E0,0E0,0E0,0E0,0E0,0E0,0E0,0E0,0E0,0E0,0E0,0E0,0E0,0E0,0E0,0E0,0E0,0E0,0E0,0E0,0E0,0E0,0E0,0E0,0E0],"parents":[2147483647,0,0,1,1,2,2,3,3,4,4,5,5,6,6,7,7,8,8,9,9,10,10,11,11,12,12,13,13,14,14,15,15,16,16,17,17,18,18,19,19,20,20,21,21,22,22,23,23,24,24,25,25,26,26,27,27,28,28,29,29,33,33,34,34,35,35,37,37,38,38,39,39,40,40,42,42,43,43,44,44,45,45,46,46,47,47,48,48,49,49,50,50,51,51,52,52,53,53,54,54,55,55,56,56,57,57,58,58,59,59,60,60],"right_children":[2,4,6,8,10,12,14,16,18,20,22,24,26,28,30,32,34,36,38,40,42,44,46,48,50,52,54,56,58,60,-1,-1,-1,62,64,66,-1,68,70,72,74,-1,76,78,80,82,84,86,88,90,92,94,96,98,100,102,104,106,108,110,112,-1,-1,-1,-1,-1,-1,-1,-1,-1,-1,-1,-1,-1,-1,-1,-1,-1,-1,-1,-1,-1,-1,-1,-1,-1,-1,-1,-1,-1,-1,-1,-1,-1,-1,-1,-1,-1,-1,-1,-1,-1,-1,-1,-1,-1,-1,-1,-1,-1,-1,-1,-1],"split_conditions":[-1.0275952E-1,-1.1181244E-1,-9.408695E-2,-2.4040714E-1,-1.0785402E-1,-9.817049E-2,1.0845159E-1,-6.0247425E-2,-1.2779665E-1,-3.0894145E-1,-1.0550523E-1,-1.0100167E-1,-9.638185E-2,-8.857627E-2,3.501622E0,-2.4828967E-1,-1.5090925E-1,-2.2880407E-1,-1.1517645E-1,-5.613763E-1,-5.1710587E-2,-4.916228E-2,-8.670642E-2,-8.311719E-2,-7.7373475E-2,-7.085245E-2,-2.0398784E-1,-9.130004E-2,-5.2666206E-2,3.2071147E0,9.0170605E-3,-9.626879E-3,-2.876982E-4,-5.640676E-2,-1.2779665E-1,-6.1579496E-2,6.2818876E-3,-6.5754193E-1,-4.592003E-1,-9.1621004E-2,-8.670642E-2,-2.820553E-3,-1.0849478E-1,-1.2446598E-1,-2.2917351E-1,-1.5440646E-1,-3.5702428E-1,-4.68688E-2,-7.40847E-2,-9.869176E-2,-7.453772E-2,5.445286E-1,-6.160326E-2,-2.0570579E-1,-6.663667E-2,-9.268599E-2,-5.967543E-2,7.579223E0,-8.547945E-2,9.9297315E-2,2.287974E0,-8.325561E-3,-6.4813565E-3,2.3141504E-6,-1.6423308E-3,1.8628741E-3,2.513041E-4,-7.4633704E-3,-5.6889183E-3,-6.012734E-3,-4.428416E-3,-1.3256768E-3,-4.202573E-3,-5.975991E-3,-4.3524406E-3,-4.2220457E-3,-3.0088946E-3,-2.7315456E-3,-1.7129161E-3,6.525904E-4,-3.5387978E-3,4.142341E-4,-1.5935054E-3,-1.3520996E-3,-3.928418E-4,8.075855E-4,-4.4553383E-4,1.005269E-3,-1.0641827E-4,8.6533633E-4,1.7574478E-3,1.2101623E-3,2.15885E-3,2.1620728E-3,2.5717986E-3,3.44905E-3,2.3560876E-3,1.937905E-3,3.7009045E-3,3.7283543E-3,4.4738944E-3,4.9109515E-3,5.6912485E-3,5.8599217E-3,6.8755E-3,3.873768E-5,7.5935423E-3,8.055334E-3,9.390346E-3,7.2367103E-3,-5.554377E-3,-5.7752634E-4,3.9015964E-3],"split_indices":[0,0,0,9,0,0,1,1,0,7,0,0,0,0,7,9,5,9,0,7,1,1,6,6,6,6,9,0,1,7,0,0,0,1,0,1,0,7,7,6,6,0,5,4,9,4,7,1,6,0,7,7,6,9,6,0,6,0,0,4,9,0,0,0,0,0,0,0,0,0,0,0,0,0,0,0,0,0,0,0,0,0,0,0,0,0,0,0,0,0,0,0,0,0,0,0,0,0,0,0,0,0,0,0,0,0,0,0,0,0,0,0,0],"split_type":[0,0,0,0,0,0,0,0,0,0,0,0,0,0,0,0,0,0,0,0,0,0,0,0,0,0,0,0,0,0,0,0,0,0,0,0,0,0,0,0,0,0,0,0,0,0,0,0,0,0,0,0,0,0,0,0,0,0,0,0,0,0,0,0,0,0,0,0,0,0,0,0,0,0,0,0,0,0,0,0,0,0,0,0,0,0,0,0,0,0,0,0,0,0,0,0,0,0,0,0,0,0,0,0,0,0,0,0,0,0,0,0,0],"sum_hessian":[8.397E3,4.138E3,4.259E3,2.1E3,2.038E3,1.899E3,2.36E3,1.002E3,1.098E3,1.034E3,1.004E3,9.46E2,9.53E2,2.294E3,6.6E1,1.73E2,8.29E2,1.2E1,1.086E3,5.55E2,4.79E2,4.98E2,5.06E2,3.12E2,6.34E2,4.61E2,4.92E2,1.224E3,1.07E3,4.8E1,1.8E1,1.72E2,1E0,8.27E2,2E0,1E1,2E0,3.82E2,7.04E2,2.61E2,2.94E2,1.62E2,3.17E2,4.17E2,8.1E1,1.47E2,3.59E2,9E1,2.22E2,1.37E2,4.97E2,1.57E2,3.04E2,2.08E2,2.84E2,6.41E2,5.83E2,1.8E1,1.052E3,3.5E1,1.3E1,7.85E2,4.2E1,1E0,1E0,5E0,5E0,3.16E2,6.6E1,5.88E2,1.16E2,1.5E1,2.46E2,1.47E2,1.47E2,1.78E2,1.39E2,1.3E2,2.87E2,2E0,7.9E1,8E0,1.39E2,1E2,2.59E2,6E0,8.4E1,1.17E2,1.05E2,1.07E2,3E1,1.22E2,3.75E2,1.05E2,5.2E1,1.71E2,1.33E2,7E0,2.01E2,5.3E1,2.31E2,3.41E2,3E2,8.8E1,4.95E2,1.1E1,7E0,5.9E2,4.62E2,1E0,3.4E1,8E0,5E0],"tree_param":{"num_deleted":"0","num_feature":"10","num_nodes":"113","size_leaf_vector":"1"}},{"base_weights":[-2.4631343E-4,-9.521385E-2,9.528509E-2,-1.3739839E-1,-4.9950406E-2,4.9022514E-2,1.3489671E-1,-1.5780465E-1,-1.1255433E-1,-6.9095746E-2,-2.1497065E-2,2.7565345E-2,6.967158E-2,1.3853589E-1,1.32791065E-2,-1.644785E-1,-1.2922096E-1,-1.21841185E-1,-7.60843E-2,-7.919082E-2,-4.6604544E-2,-3.0982096E-2,-1.2028843E-2,7.779509E-3,3.6527902E-2,5.5887632E-2,8.1242524E-2,1.17515735E-1,1.6481991E-1,-1.0687516E-1,1.2618801E-1,-1.667286E-1,-6.681969E-3,-1.3467789E-1,-8.0805354E-2,5.795933E-2,-1.22831196E-1,-9.1949195E-2,-5.6160085E-2,-6.658223E-2,-8.71874E-2,-4.441514E-2,-7.479006E-2,-4.3199E-2,-2.244348E-2,-3.359439E-2,-9.108787E-3,-7.2776307E-3,1.276398E-2,2.801061E-2,4.297795E-2,4.7410697E-2,6.0502086E-2,3.4431857E-3,8.491794E-2,1.0274185E-1,1.2928797E-1,3.93188E-2,1.6753845E-1,-7.521182E-3,-6.2227905E-2,4.0650282E-2,1.748853E-1,-4.209657E-3,-8.37339E-3,-7.886493E-3,-6.2755495E-3,-2.6733743E-3,-6.7816065E-3,1.3115511E-3,4.6218145E-3,-6.8847924E-3,-5.675116E-3,3.2911898E-4,-4.690026E-3,-2.0458435E-3,-3.4506419E-3,-4.6245973E-3,-2.636385E-3,-4.979824E-3,-3.624142E-3,-2.6925905E-3,-1.8681204E-3,-4.3434353E-4,-3.8543355E-3,-1.5634457E-3,-3.1048409E-3,6.0701603E-4,-1.2221156E-3,-1.9859206E-3,-1.3324674E-3,-9.943295E-4,-1.6837905E-4,-7.648532E-4,-1.2713525E-5,-4.739117E-4,9.58653E-4,5.788779E-4,1.5936561E-3,1.5904362E-3,2.3539814E-3,2.7178852E-3,2.1958794E-3,3.4483268E-3,2.4190086E-3,3.2326027E-3,4.4007986E-3,4.6137613E-3,5.3442395E-3,6.087144E-3,6.816208E-3,-4.9863243E-4,7.3184E-3,7.934653E-3,9.039806E-3,-3.7027176E-3,-1.3116305E-3,3.9465455E-4,6.0284995E-3,4.377793E-3,9.203298E-3],"categories":[],"categories_nodes":[],"categories_segments":[],"categories_sizes":[],"default_left":[0,0,0,0,0,0,0,0,0,0,0,0,0,0,0,0,0,0,0,0,0,0,0,0,0,0,0,0,0,0,0,0,0,0,0,0,0,0,0,0,0,0,0,0,0,0,0,0,0,0,0,0,0,0,0,0,0,0,0,0,0,0,0,0,0,0,0,0,0,0,0,0,0,0,0,0,0,0,0,0,0,0,0,0,0,0,0,0,0,0,0,0,0,0,0,0,0,0,0,0,0,0,0,0,0,0,0,0,0,0,0,0,0,0,0,0,0,0,0,0,0],"id":12,"left_children":[1,3,5,7,9,11,13,15,17,19,21,23,25,27,29,31,33,35,37,39,41,43,45,47,49,51,53,55,57,59,61,63,-1,65,67,69,71,73,75,77,79,81,83,85,87,89,91,93,95,97,99,101,103,-1,105,107,109,111,113,-1,115,117,119,-1,-1,-1,-1,-1,-1,-1,-1,-1,-1,-1,-1,-1,-1,-1,-1,-1,-1,-1,-1,-1,-1,-1,-1,-1,-1,-1,-1,-1,-1,-1,-1,-1,-1,-1,-1,-1,-1,-1,-1,-1,-1,-1,-1,-1,-1,-1,-1,-1,-1,-1,-1,-1,-1,-1,-1,-1,-1],"loss_changes":[7.663441E1,8.081429E0,7.7101974E0,1.0935287E0,1.1125259E0,8.5940886E-1,1.0019493E0,2.0785141E-1,3.2671165E-1,2.737651E-1,7.362777E-2,1.6906762E-1,1.533575E-1,1.1972237E0,9.22441E-1,4.5028687E-2,5.04117E-2,1.4756489E-1,5.9319615E-2,7.909012E-2,2.0189583E-2,4.190412E-2,2.5764648E-2,2.2533402E-2,3.4889758E-2,1.4929533E-2,1.8538713E-2,2.0011902E-1,3.2640457E-1,5.4802E-2,1.3868177E-1,4.0807724E-2,0E0,2.3945332E-2,3.171812E-2,3.0447785E-3,9.322834E-2,2.1047771E-2,1.5396506E-2,1.1394119E-1,8.620548E-2,2.1681309E-2,3.27757E-3,3.593433E-2,1.7163761E-2,1.0255799E-3,2.258023E-2,4.2203623E-3,3.225595E-2,1.7784223E-2,1.5544713E-2,1.6167462E-3,2.6521564E-2,0E0,1.9988298E-2,1.3943195E-2,1.9451141E-2,1.1754511E-1,8.3301544E-2,0E0,5.7199E-3,3.569956E-2,1.522243E-3,0E0,0E0,0E0,0E0,0E0,0E0,0E0,0E0,0E0,0E0,0E0,0E0,0E0,0E0,0E0,0E0,0E0,0E0,0E0,0E0,0E0,0E0,0E0,0E0,0E0,0E0,0E0,0E0,0E0,0E0,0E0,0E0,0E0,0E0,0E0,0E0,0E0,0E0,0E0,0E0,0E0,0E0,0E0,0E0,0E0,0E0,0E0,0E0,0E0,0E0,0E0,0E0,0E0,0E0,0E0,0E0,0E0,0E0],"parents":[2147483647,0,0,1,1,2,2,3,3,4,4,5,5,6,6,7,7,8,8,9,9,10,10,11,11,12,12,13,13,14,14,15,15,16,16,17,17,18,18,19,19,20,20,21,21,22,22,23,23,24,24,25,25,26,26,27,27,28,28,29,29,30,30,31,31,33,33,34,34,35,35,36,36,37,37,38,38,39,39,40,40,41,41,42,42,43,43,44,44,45,45,46,46,47,47,48,48,49,49,50,50,51,51,52,52,54,54,55,55,56,56,57,57,58,58,60,60,61,61,62,62],"right_children":[2,4,6,8,10,12,14,16,18,20,22,24,26,28,30,32,34,36,38,40,42,44,46,48,50,52,54,56,58,60,62,64,-1,66,68,70,72,74,76,78,80,82,84,86,88,90,92,94,96,98,100,102,104,-1,106,108,110,112,114,-1,116,118,120,-1,-1,-1,-1,-1,-1,-1,-1,-1,-1,-1,-1,-1,-1,-1,-1,-1,-1,-1,-1,-1,-1,-1,-1,-1,-1,-1,-1,-1,-1,-1,-1,-1,-1,-1,-1,-1,-1,-1,-1,-1,-1,-1,-1,-1,-1,-1,-1,-1,-1,-1,-1,-1,-1,-1,-1,-1,-1],"split_conditions":[-1.0236105E-1,-1.1152139E-1,-9.3660384E-2,-2.3813249E-1,-1.0669561E-1,-9.776779E-2,1.0845159E-1,-7.5668466E-1,-4.903295E-1,-2.1065654E-1,-2.187833E-1,-1.00719094E-1,-9.606308E-2,-8.806617E-2,4.2108397E0,-7.899405E-2,-5.6106422E-2,-1.2779665E-1,-5.4386314E-2,-5.2338567E-2,-4.9608234E-2,-5.0843425E-2,-5.5691826E-1,-8.2922995E-2,-9.932929E-2,-6.988252E-2,-6.803268E-2,-9.130004E-2,-4.7314756E-2,3.9977555E0,7.579223E0,-3.2604234E0,-6.681969E-3,-5.7476137E-2,-1.9491996E-1,-2.3138417E-1,-9.191308E-2,-1.2779665E-1,-4.2313817E-1,-8.898623E-1,-8.670642E-2,-9.442141E-2,-1.438435E-1,-4.916228E-2,-2.2962828E-1,-6.101893E-1,-8.500105E-2,2.4401096E-1,-3.971052E-1,-7.92966E-2,-7.519701E-2,4.2859593E-1,-6.022661E-2,3.4431857E-3,-9.07967E-2,-6.160326E-2,-1.945661E-1,7.579223E0,-8.486463E-2,-7.521182E-3,2.2278924E0,4.317382E0,2.3674629E0,-4.209657E-3,-8.37339E-3,-7.886493E-3,-6.2755495E-3,-2.6733743E-3,-6.7816065E-3,1.3115511E-3,4.6218145E-3,-6.8847924E-3,-5.675116E-3,3.2911898E-4,-4.690026E-3,-2.0458435E-3,-3.4506419E-3,-4.6245973E-3,-2.636385E-3,-4.979824E-3,-3.624142E-3,-2.6925905E-3,-1.8681204E-3,-4.3434353E-4,-3.8543355E-3,-1.5634457E-3,-3.1048409E-3,6.0701603E-4,-1.2221156E-3,-1.9859206E-3,-1.3324674E-3,-9.943295E-4,-1.6837905E-4,-7.648532E-4,-1.2713525E-5,-4.739117E-4,9.58653E-4,5.788779E-4,1.5936561E-3,1.5904362E-3,2.3539814E-3,2.7178852E-3,2.1958794E-3,3.4483268E-3,2.4190086E-3,3.2326027E-3,4.4007986E-3,4.6137613E-3,5.3442395E-3,6.087144E-3,6.816208E-3,-4.9863243E-4,7.3184E-3,7.934653E-3,9.039806E-3,-3.7027176E-3,-1.3116305E-3,3.9465455E-4,6.0284995E-3,4.377793E-3,9.203298E-3],"split_indices":[0,0,0,9,0,0,1,2,2,2,9,0,0,0,2,6,1,0,1,1,1,2,2,6,0,6,6,0,1,2,0,2,0,1,4,9,6,0,7,2,6,6,4,1,9,2,6,7,2,6,6,2,6,0,2,6,9,0,0,0,9,2,9,0,0,0,0,0,0,0,0,0,0,0,0,0,0,0,0,0,0,0,0,0,0,0,0,0,0,0,0,0,0,0,0,0,0,0,0,0,0,0,0,0,0,0,0,0,0,0,0,0,0,0,0,0,0,0,0,0,0],"split_type":[0,0,0,0,0,0,0,0,0,0,0,0,0,0,0,0,0,0,0,0,0,0,0,0,0,0,0,0,0,0,0,0,0,0,0,0,0,0,0,0,0,0,0,0,0,0,0,0,0,0,0,0,0,0,0,0,0,0,0,0,0,0,0,0,0,0,0,0,0,0,0,0,0,0,0,0,0,0,0,0,0,0,0,0,0,0,0,0,0,0,0,0,0,0,0,0,0,0,0,0,0,0,0,0,0,0,0,0,0,0,0,0,0,0,0,0,0,0,0,0,0],"sum_hessian":[8.445E3,4.235E3,4.21E3,2.191E3,2.044E3,1.943E3,2.267E3,1.2E3,9.91E2,1.221E3,8.23E2,9.54E2,9.89E2,2.201E3,6.6E1,9.69E2,2.31E2,7.88E2,2.03E2,8.41E2,3.8E2,4.1E2,4.13E2,2.98E2,6.56E2,4.54E2,5.35E2,1.226E3,9.75E2,3.2E1,3.4E1,8.99E2,7E1,2.06E2,2.5E1,4E0,7.84E2,1.11E2,9.2E1,3.3E2,5.11E2,3.55E2,2.5E1,1.67E2,2.43E2,4.8E1,3.65E2,7.4E1,2.24E2,2.85E2,3.71E2,1.64E2,2.9E2,1.27E2,4.08E2,5.48E2,6.78E2,2.1E1,9.54E2,1.5E1,1.7E1,1.3E1,2.1E1,9E0,8.9E2,5.4E1,1.52E2,1.8E1,7E0,3E0,1E0,2.97E2,4.87E2,2E0,1.09E2,4.4E1,4.8E1,1.13E2,2.17E2,2.74E2,2.37E2,1.49E2,2.06E2,1E0,2.4E1,1.04E2,6.3E1,1.3E1,2.3E2,2.3E1,2.5E1,1.26E2,2.39E2,3.4E1,4E1,5E1,1.74E2,5.5E1,2.3E2,1.02E2,2.69E2,5E1,1.14E2,1.68E2,1.22E2,5.7E1,3.51E2,1.62E2,3.86E2,3.36E2,3.42E2,1.5E1,6E0,5.8E2,3.74E2,1.2E1,5E0,1E1,3E0,3E0,1.8E1],"tree_param":{"num_deleted":"0","num_feature":"10","num_nodes":"121","size_leaf_vector":"1"}},{"base_weights":[-1.2120705E-4,-9.1838E-2,8.8983096E-2,-1.3181989E-1,-5.040354E-2,4.367671E-2,1.2729894E-1,-1.4789753E-1,-1.0671167E-1,-7.261923E-2,-2.8225372E-2,2.2218075E-2,6.359582E-2,1.3088956E-1,1.0016014E-2,-3.966386E-4,-1.4909695E-1,-1.1531991E-1,-7.628681E-2,-8.403284E-2,-5.160928E-2,-4.0355712E-2,-1.6504942E-2,6.682184E-3,3.1565104E-2,4.9803004E-2,7.4742906E-2,1.087836E-1,1.533143E-1,-9.857305E-2,1.0405347E-1,-1.5607256E-1,-1.2274933E-1,-1.3089933E-1,-1.0607098E-1,-9.2329815E-2,-5.696971E-2,-9.2292115E-2,-7.129434E-2,-4.6089333E-2,-7.049098E-2,-5.1321007E-2,-2.7832126E-2,-2.8279342E-2,-1.13306E-2,-1.4067245E-2,9.64398E-3,6.8803504E-3,3.4034558E-2,4.233996E-2,5.3592406E-2,6.342791E-2,7.831958E-2,9.706571E-2,1.2055804E-1,3.509752E-2,1.5555146E-1,-7.1124197E-3,-4.9099296E-2,2.9191986E-2,1.5717126E-1,-8.7873945E-3,-7.5973393E-3,-6.3460553E-3,-2.4034192E-3,-5.53839E-3,-6.728203E-3,-6.014981E-3,-4.8145703E-3,-1.1065319E-3,-4.713639E-3,-1.9639698E-3,-3.7494197E-3,-4.8461263E-3,-3.4638455E-3,-2.4319475E-3,-3.8180184E-3,-5.1493E-4,-2.3348003E-3,-2.3347202E-3,-4.0229307E-3,-2.131989E-3,-3.2696128E-3,-2.4928823E-3,-1.0685835E-3,-1.7019393E-3,-8.3849364E-4,-1.4901293E-3,-3.8358066E-4,-8.8493153E-4,-6.169975E-5,-1.3002892E-4,8.099582E-4,-8.23723E-4,5.603079E-4,8.954638E-4,1.9365924E-3,2.4431983E-3,1.9582962E-3,3.1119832E-3,2.1057648E-3,2.7343153E-3,3.336964E-3,2.944161E-3,4.1041696E-3,4.4563017E-3,5.1736394E-3,5.3205285E-3,6.197606E-3,-3.825634E-3,4.614156E-3,7.052888E-3,8.290294E-3,-3.092168E-3,-3.0724407E-4,-3.5492767E-4,5.8854497E-3,4.1421005E-3,8.4543275E-3],"categories":[],"categories_nodes":[],"categories_segments":[],"categories_sizes":[],"default_left":[0,0,0,0,0,0,0,0,0,0,0,0,0,0,0,0,0,0,0,0,0,0,0,0,0,0,0,0,0,0,0,0,0,0,0,0,0,0,0,0,0,0,0,0,0,0,0,0,0,0,0,0,0,0,0,0,0,0,0,0,0,0,0,0,0,0,0,0,0,0,0,0,0,0,0,0,0,0,0,0,0,0,0,0,0,0,0,0,0,0,0,0,0,0,0,0,0,0,0,0,0,0,0,0,0,0,0,0,0,0,0,0,0,0,0,0,0,0,0],"id":13,"left_children":[1,3,5,7,9,11,13,15,17,19,21,23,25,27,29,-1,31,33,35,37,39,41,43,45,47,49,51,53,55,57,59,61,63,65,67,69,71,73,75,77,79,81,83,85,87,89,91,93,95,97,99,101,103,105,107,109,111,-1,113,115,117,-1,-1,-1,-1,-1,-1,-1,-1,-1,-1,-1,-1,-1,-1,-1,-1,-1,-1,-1,-1,-1,-1,-1,-1,-1,-1,-1,-1,-1,-1,-1,-1,-1,-1,-1,-1,-1,-1,-1,-1,-1,-1,-1,-1,-1,-1,-1,-1,-1,-1,-1,-1,-1,-1,-1,-1,-1,-1],"loss_changes":[6.9007416E1,6.886585E0,7.4295235E0,8.3880997E-1,1.0055289E0,8.380728E-1,9.7568893E-1,2.1504402E-1,2.0858192E-1,2.4049807E-1,1.4506102E-1,1.3730714E-1,1.5279484E-1,1.0991898E0,7.2505754E-1,0E0,2.1554184E-1,7.905674E-2,5.238223E-2,6.285906E-2,3.448093E-2,6.764597E-2,3.1543225E-2,2.2075305E-2,3.5791874E-2,1.0683298E-2,1.7736197E-2,1.4517212E-1,2.89423E-1,6.432155E-2,1.4651796E-1,5.4958344E-2,7.8641415E-2,2.5057793E-3,4.5467377E-2,1.1553168E-2,2.4786264E-2,3.559351E-2,2.6585937E-2,5.6638718E-3,1.5218675E-2,2.9827297E-2,3.2658353E-2,9.968996E-3,2.4441257E-2,2.0752717E-3,2.5165172E-2,5.741177E-3,3.9981484E-2,1.3786852E-3,2.715242E-2,4.028082E-4,2.603817E-2,2.0028114E-2,1.3843536E-2,1.4747578E-1,1.3920975E-1,0E0,8.926015E-3,5.5445172E-2,5.4769516E-3,0E0,0E0,0E0,0E0,0E0,0E0,0E0,0E0,0E0,0E0,0E0,0E0,0E0,0E0,0E0,0E0,0E0,0E0,0E0,0E0,0E0,0E0,0E0,0E0,0E0,0E0,0E0,0E0,0E0,0E0,0E0,0E0,0E0,0E0,0E0,0E0,0E0,0E0,0E0,0E0,0E0,0E0,0E0,0E0,0E0,0E0,0E0,0E0,0E0,0E0,0E0,0E0,0E0,0E0,0E0,0E0,0E0,0E0],"parents":[2147483647,0,0,1,1,2,2,3,3,4,4,5,5,6,6,7,7,8,8,9,9,10,10,11,11,12,12,13,13,14,14,16,16,17,17,18,18,19,19,20,20,21,21,22,22,23,23,24,24,25,25,26,26,27,27,28,28,29,29,30,30,31,31,32,32,33,33,34,34,35,35,36,36,37,37,38,38,39,39,40,40,41,41,42,42,43,43,44,44,45,45,46,46,47,47,48,48,49,49,50,50,51,51,52,52,53,53,54,54,55,55,56,56,58,58,59,59,60,60],"right_children":[2,4,6,8,10,12,14,16,18,20,22,24,26,28,30,-1,32,34,36,38,40,42,44,46,48,50,52,54,56,58,60,62,64,66,68,70,72,74,76,78,80,82,84,86,88,90,92,94,96,98,100,102,104,106,108,110,112,-1,114,116,118,-1,-1,-1,-1,-1,-1,-1,-1,-1,-1,-1,-1,-1,-1,-1,-1,-1,-1,-1,-1,-1,-1,-1,-1,-1,-1,-1,-1,-1,-1,-1,-1,-1,-1,-1,-1,-1,-1,-1,-1,-1,-1,-1,-1,-1,-1,-1,-1,-1,-1,-1,-1,-1,-1,-1,-1,-1,-1],"split_conditions":[-1.0275952E-1,-1.1181244E-1,-9.388252E-2,-1.16075E-1,-1.0785402E-1,-9.817049E-2,1.0845159E-1,-3.2604234E0,-5.0364727E-1,-2.905631E-1,-1.0550523E-1,-1.00719094E-1,-9.638185E-2,-8.877377E-2,4.2108397E0,-3.966386E-4,-7.5668466E-1,-9.191308E-2,-5.4386314E-2,-1.0966846E-1,-5.0691266E-2,-9.07967E-2,-8.670642E-2,-4.3705845E-1,-3.0388087E-1,-7.116861E-2,-6.6328354E-2,-9.130004E-2,-4.7314756E-2,3.9977555E0,6.33549E0,-6.0247425E-2,-5.581974E-2,-1.0097221E0,-1.1381937E-1,-1.0780369E-1,-4.2313817E-1,-7.40847E-2,-5.378564E-2,-1.7342946E-1,-9.628695E-2,-4.967194E-2,-9.1621004E-2,-1.03773564E-1,-5.1696503E-1,-2.7287936E-1,-8.123071E-2,-4.6369398E-1,-7.7373475E-2,4.2859593E-1,-6.160326E-2,-3.706862E-2,-9.07967E-2,-9.2755675E-2,-5.786799E-2,3.4086914E0,-8.6403415E-2,-7.1124197E-3,3.2071147E0,4.317382E0,3.6999636E0,-8.7873945E-3,-7.5973393E-3,-6.3460553E-3,-2.4034192E-3,-5.53839E-3,-6.728203E-3,-6.014981E-3,-4.8145703E-3,-1.1065319E-3,-4.713639E-3,-1.9639698E-3,-3.7494197E-3,-4.8461263E-3,-3.4638455E-3,-2.4319475E-3,-3.8180184E-3,-5.1493E-4,-2.3348003E-3,-2.3347202E-3,-4.0229307E-3,-2.131989E-3,-3.2696128E-3,-2.4928823E-3,-1.0685835E-3,-1.7019393E-3,-8.3849364E-4,-1.4901293E-3,-3.8358066E-4,-8.8493153E-4,-6.169975E-5,-1.3002892E-4,8.099582E-4,-8.23723E-4,5.603079E-4,8.954638E-4,1.9365924E-3,2.4431983E-3,1.9582962E-3,3.1119832E-3,2.1057648E-3,2.7343153E-3,3.336964E-3,2.944161E-3,4.1041696E-3,4.4563017E-3,5.1736394E-3,5.3205285E-3,6.197606E-3,-3.825634E-3,4.614156E-3,7.052888E-3,8.290294E-3,-3.092168E-3,-3.0724407E-4,-3.5492767E-4,5.8854497E-3,4.1421005E-3,8.4543275E-3],"split_indices":[0,0,0,0,0,0,1,2,2,2,0,0,0,0,2,0,2,6,1,0,1,2,6,2,2,6,6,0,1,2,4,1,1,2,0,6,7,6,1,4,6,1,6,0,2,7,6,2,6,2,6,5,2,0,6,6,0,0,7,2,7,0,0,0,0,0,0,0,0,0,0,0,0,0,0,0,0,0,0,0,0,0,0,0,0,0,0,0,0,0,0,0,0,0,0,0,0,0,0,0,0,0,0,0,0,0,0,0,0,0,0,0,0,0,0,0,0,0,0],"split_type":[0,0,0,0,0,0,0,0,0,0,0,0,0,0,0,0,0,0,0,0,0,0,0,0,0,0,0,0,0,0,0,0,0,0,0,0,0,0,0,0,0,0,0,0,0,0,0,0,0,0,0,0,0,0,0,0,0,0,0,0,0,0,0,0,0,0,0,0,0,0,0,0,0,0,0,0,0,0,0,0,0,0,0,0,0,0,0,0,0,0,0,0,0,0,0,0,0,0,0,0,0,0,0,0,0,0,0,0,0,0,0,0,0,0,0,0,0,0,0],"sum_hessian":[8.442E3,4.16E3,4.282E3,2.116E3,2.044E3,1.963E3,2.319E3,1.287E3,8.29E2,1.02E3,1.024E3,9.46E2,1.017E3,2.25E3,6.9E1,1.1E1,1.276E3,6.44E2,1.85E2,6.59E2,3.61E2,5.02E2,5.22E2,3.56E2,5.9E2,4.57E2,5.6E2,1.136E3,1.114E3,3.2E1,3.7E1,1.005E3,2.71E2,2.35E2,4.09E2,9.9E1,8.6E1,3.96E2,2.63E2,2.82E2,7.9E1,2.66E2,2.36E2,1.58E2,3.64E2,4.4E1,3.12E2,5.4E1,5.36E2,1.58E2,2.99E2,1.39E2,4.21E2,5.74E2,5.62E2,2.1E1,1.093E3,1.6E1,1.6E1,1.6E1,2.1E1,1.67E2,8.38E2,2.56E2,1.5E1,4.1E1,1.94E2,1.62E2,2.47E2,3E0,9.6E1,4.5E1,4.1E1,3.27E2,6.9E1,5E1,2.13E2,5E0,2.77E2,2.5E1,5.4E1,1.67E2,9.9E1,5.2E1,1.84E2,1.04E2,5.4E1,5.9E1,3.05E2,3.4E1,1E1,1.09E2,2.03E2,8E0,4.6E1,1.22E2,4.14E2,4.7E1,1.11E2,1.68E2,1.31E2,4.3E1,9.6E1,7.1E1,3.5E2,2.63E2,3.11E2,1.15E2,4.47E2,7E0,1.4E1,4.59E2,6.34E2,1.2E1,4E0,1.2E1,4E0,4E0,1.7E1],"tree_param":{"num_deleted":"0","num_feature":"10","num_nodes":"119","size_leaf_vector":"1"}},{"base_weights":[-8.687969E-7,-8.670392E-2,8.400529E-2,-1.21385664E-1,-4.4889893E-2,3.9034627E-2,1.1947257E-1,-1.4075376E-1,-9.7725235E-2,-5.999266E-2,-1.8748581E-2,1.53499255E-2,5.4184496E-2,9.5741116E-2,1.3462974E-1,-1.5523483E-1,-1.3164058E-1,4.657452E-2,-9.9328645E-2,-6.955499E-2,-4.7182214E-2,-2.479721E-2,-1.0462993E-2,2.9818946E-3,2.3672132E-2,4.3496773E-2,6.8534456E-2,4.215466E-3,1.0311996E-1,1.4055057E-1,1.0750481E-2,-1.563757E-1,-6.8661034E-2,2.6398897E-3,-1.3234067E-1,5.9316508E-3,2.0299524E-2,-1.04062244E-1,-6.936081E-2,-5.8818202E-2,-7.817068E-2,-4.3900963E-2,-6.477722E-2,9.639293E-3,-2.616039E-2,-1.7656283E-2,-8.230393E-3,3.988167E-3,-9.77014E-4,1.2799132E-2,2.704414E-2,5.1152058E-2,3.9614636E-2,6.1850213E-2,7.382607E-2,1.03483096E-1,2.592947E-3,6.159274E-3,1.5092394E-1,1.3079071E-1,-6.2081993E-2,-1.0342076E-3,-7.831021E-3,-4.1069593E-3,-1.7324042E-3,-7.900099E-4,1.0100007E-3,-6.841607E-3,-5.680396E-3,1.2428369E-3,6.902218E-5,-5.0632725E-3,-6.6328193E-3,-3.9454703E-3,-3.070586E-3,-3.629249E-3,